SVM-light Version V6.02
1 # kernel type
3 # kernel parameter -d 
1 # kernel parameter -g 
1 # kernel parameter -s 
1 # kernel parameter -r 
empty# kernel parameter -u 
50594 # highest feature index 
10251 # number of training documents 
1921 # number of support vectors plus 1 
-0.81745349 # threshold b, each following line is a SV (starting with alpha*y)
-10.36040810231927800089124502847 1:0.0086956518 2:0.043478262 3:0.034782607 4:0.0086956518 7:0.060869563 11:0.017391304 12:0.0086956518 14:0.017391304 25:0.0086956518 27:0.0086956518 29:0.026086956 32:0.0086956518 46:0.0086956518 48:0.017391304 57:0.026086956 67:0.0086956518 74:0.017391304 77:0.0086956518 87:0.0086956518 103:0.0086956518 119:0.0086956518 127:0.0086956518 137:0.017391304 138:0.0086956518 144:0.0086956518 165:0.0086956518 193:0.0086956518 201:0.0086956518 213:0.0086956518 218:0.034782607 224:0.0086956518 236:0.0086956518 239:0.0086956518 260:0.0086956518 265:0.0086956518 274:0.0086956518 285:0.0086956518 303:0.0086956518 339:0.0086956518 341:0.0086956518 355:0.0086956518 396:0.0086956518 399:0.0086956518 406:0.0086956518 411:0.0086956518 415:0.0086956518 423:0.0086956518 425:0.0086956518 426:0.0086956518 427:0.0086956518 428:0.0086956518 429:0.017391304 430:0.0086956518 431:0.017391304 432:0.017391304 433:0.0086956518 434:0.0086956518 435:0.0086956518 436:0.0086956518 437:0.0086956518 438:0.0086956518 439:0.017391304 440:0.0086956518 441:0.0086956518 442:0.0086956518 443:0.026086956 444:0.0086956518 445:0.0086956518 446:0.0086956518 447:0.0086956518 448:0.017391304 449:0.0086956518 450:0.017391304 451:0.0086956518 452:0.0086956518 453:0.0086956518 454:0.0086956518 455:0.0086956518 456:0.0086956518 457:0.0086956518 458:0.0086956518 459:0.0086956518 #
-10.36040810231927800089124502847 1:0.014705882 3:0.014705882 7:0.044117648 12:0.014705882 14:0.029411765 18:0.014705882 20:0.014705882 25:0.014705882 29:0.029411765 30:0.014705882 36:0.014705882 46:0.014705882 63:0.029411765 103:0.014705882 156:0.014705882 191:0.014705882 208:0.014705882 210:0.029411765 214:0.029411765 239:0.014705882 241:0.014705882 265:0.014705882 267:0.014705882 268:0.014705882 269:0.014705882 274:0.014705882 289:0.014705882 339:0.014705882 366:0.014705882 438:0.014705882 454:0.014705882 511:0.014705882 542:0.014705882 554:0.014705882 584:0.014705882 649:0.014705882 710:0.014705882 763:0.014705882 937:0.014705882 938:0.014705882 939:0.014705882 940:0.014705882 941:0.014705882 942:0.014705882 943:0.014705882 944:0.014705882 945:0.014705882 946:0.014705882 947:0.014705882 948:0.014705882 949:0.014705882 950:0.014705882 951:0.014705882 952:0.014705882 953:0.014705882 954:0.014705882 955:0.014705882 956:0.014705882 957:0.014705882 958:0.014705882 959:0.014705882 #
-10.36040810231927800089124502847 2:0.022222223 4:0.022222223 7:0.022222223 11:0.044444446 12:0.022222223 14:0.022222223 29:0.06666667 36:0.022222223 57:0.06666667 74:0.022222223 87:0.022222223 167:0.022222223 187:0.022222223 193:0.022222223 213:0.022222223 239:0.022222223 266:0.022222223 289:0.022222223 290:0.022222223 299:0.022222223 311:0.022222223 398:0.022222223 429:0.044444446 599:0.022222223 685:0.022222223 743:0.022222223 757:0.022222223 775:0.022222223 839:0.022222223 863:0.022222223 965:0.022222223 966:0.022222223 967:0.022222223 968:0.022222223 969:0.022222223 970:0.022222223 971:0.022222223 972:0.022222223 973:0.022222223 #
-10.36040810231927800089124502847 1:0.039999999 3:0.039999999 7:0.039999999 14:0.12 29:0.039999999 185:0.039999999 195:0.039999999 266:0.039999999 267:0.039999999 341:0.039999999 399:0.039999999 439:0.039999999 533:0.039999999 808:0.039999999 949:0.039999999 1312:0.039999999 1313:0.039999999 1314:0.039999999 1315:0.039999999 1316:0.039999999 1317:0.039999999 1318:0.039999999 1319:0.039999999 #
-10.36040810231927800089124502847 1:0.021276595 2:0.015957447 3:0.04255319 7:0.05319149 12:0.037234042 14:0.010638298 18:0.015957447 20:0.0053191488 29:0.031914894 36:0.010638298 46:0.015957447 48:0.021276595 57:0.021276595 61:0.0053191488 63:0.0053191488 64:0.0053191488 74:0.0053191488 87:0.015957447 88:0.0053191488 103:0.0053191488 118:0.0053191488 129:0.0053191488 134:0.010638298 137:0.0053191488 138:0.010638298 156:0.010638298 163:0.0053191488 165:0.0053191488 187:0.015957447 190:0.0053191488 193:0.010638298 200:0.0053191488 206:0.0053191488 210:0.010638298 214:0.0053191488 216:0.0053191488 237:0.010638298 239:0.026595745 241:0.0053191488 242:0.010638298 281:0.0053191488 285:0.0053191488 314:0.0053191488 323:0.0053191488 339:0.0053191488 366:0.0053191488 403:0.0053191488 425:0.0053191488 432:0.0053191488 466:0.0053191488 475:0.0053191488 487:0.0053191488 542:0.0053191488 570:0.0053191488 609:0.0053191488 617:0.0053191488 636:0.0053191488 731:0.0053191488 763:0.021276595 851:0.0053191488 885:0.0053191488 916:0.0053191488 1104:0.0053191488 1159:0.0053191488 1162:0.0053191488 1256:0.0053191488 1369:0.0053191488 1392:0.0053191488 1393:0.0053191488 1394:0.0053191488 1395:0.0053191488 1396:0.010638298 1397:0.0053191488 1398:0.015957447 1399:0.0053191488 1400:0.0053191488 1401:0.0053191488 1402:0.010638298 1403:0.0053191488 1404:0.0053191488 1405:0.0053191488 1406:0.0053191488 1407:0.010638298 1408:0.0053191488 1409:0.0053191488 1410:0.0053191488 1411:0.010638298 1412:0.0053191488 1413:0.0053191488 1414:0.0053191488 1415:0.0053191488 1416:0.0053191488 1417:0.0053191488 1418:0.0053191488 1419:0.0053191488 1420:0.0053191488 1421:0.0053191488 1422:0.0053191488 1423:0.0053191488 1424:0.0053191488 1425:0.0053191488 1426:0.0053191488 1427:0.0053191488 1428:0.0053191488 1429:0.0053191488 1430:0.0053191488 1431:0.0053191488 1432:0.0053191488 1433:0.0053191488 1434:0.0053191488 1435:0.0053191488 1436:0.0053191488 1437:0.0053191488 1438:0.0053191488 1439:0.0053191488 1440:0.0053191488 1441:0.0053191488 1442:0.0053191488 1443:0.0053191488 1444:0.0053191488 #
0.091961599395318671668064780533314 3:0.052631579 7:0.02631579 12:0.052631579 14:0.02631579 25:0.02631579 26:0.02631579 29:0.02631579 30:0.02631579 36:0.02631579 48:0.02631579 156:0.02631579 185:0.02631579 187:0.02631579 210:0.078947365 250:0.02631579 270:0.02631579 308:0.02631579 321:0.02631579 337:0.02631579 432:0.02631579 699:0.02631579 773:0.02631579 1594:0.02631579 3733:0.02631579 3827:0.02631579 4219:0.02631579 5457:0.02631579 5545:0.02631579 6432:0.02631579 6911:0.02631579 7103:0.02631579 7989:0.02631579 9924:0.02631579 34602:0.02631579 #
0.42426824878851476796626229770482 1:0.034482758 3:0.10344828 12:0.034482758 25:0.034482758 29:0.068965517 46:0.034482758 48:0.034482758 77:0.034482758 102:0.034482758 165:0.034482758 191:0.034482758 207:0.034482758 221:0.034482758 266:0.034482758 519:0.034482758 974:0.034482758 1399:0.034482758 2702:0.034482758 5555:0.034482758 7227:0.034482758 8093:0.034482758 9538:0.034482758 11625:0.034482758 20479:0.034482758 20480:0.034482758 20481:0.034482758 #
5.0462557476777405440770962741226 1:0.012987013 2:0.012987013 3:0.025974026 7:0.1038961 12:0.012987013 14:0.012987013 21:0.012987013 36:0.025974026 46:0.064935066 55:0.012987013 63:0.012987013 74:0.025974026 82:0.012987013 83:0.012987013 84:0.012987013 85:0.012987013 86:0.012987013 87:0.012987013 88:0.012987013 89:0.012987013 90:0.012987013 91:0.012987013 92:0.012987013 93:0.012987013 94:0.012987013 95:0.012987013 96:0.025974026 97:0.012987013 98:0.025974026 99:0.025974026 100:0.012987013 101:0.012987013 102:0.012987013 103:0.012987013 104:0.012987013 105:0.012987013 106:0.012987013 107:0.012987013 108:0.012987013 109:0.012987013 110:0.012987013 111:0.012987013 112:0.012987013 113:0.012987013 114:0.012987013 115:0.012987013 116:0.012987013 117:0.012987013 118:0.012987013 119:0.012987013 120:0.012987013 121:0.012987013 122:0.012987013 123:0.012987013 124:0.012987013 125:0.012987013 126:0.012987013 127:0.012987013 128:0.012987013 129:0.012987013 #
3.5912828338573001829558961617295 2:0.057142857 7:0.085714288 14:0.057142857 36:0.028571429 46:0.057142857 57:0.028571429 87:0.028571429 112:0.028571429 130:0.028571429 131:0.028571429 132:0.028571429 133:0.028571429 134:0.028571429 135:0.028571429 136:0.028571429 137:0.057142857 138:0.028571429 139:0.028571429 140:0.028571429 141:0.028571429 142:0.028571429 143:0.028571429 144:0.028571429 145:0.028571429 146:0.028571429 147:0.028571429 148:0.028571429 149:0.028571429 150:0.028571429 #
0.81426121594938649650430306792259 7:0.041666668 12:0.083333336 14:0.041666668 18:0.041666668 46:0.083333336 48:0.083333336 63:0.041666668 88:0.041666668 193:0.041666668 201:0.041666668 269:0.041666668 482:0.041666668 512:0.041666668 532:0.041666668 1064:0.041666668 1138:0.041666668 1331:0.041666668 1357:0.041666668 4396:0.041666668 6620:0.041666668 36452:0.041666668 #
-10.36040810231927800089124502847 2:0.043478262 3:0.021739131 7:0.15217391 8:0.021739131 12:0.021739131 46:0.021739131 63:0.043478262 68:0.021739131 74:0.021739131 87:0.043478262 124:0.021739131 142:0.021739131 144:0.021739131 163:0.021739131 187:0.021739131 294:0.021739131 417:0.021739131 427:0.021739131 547:0.021739131 692:0.021739131 696:0.021739131 863:0.021739131 1076:0.021739131 1296:0.021739131 1708:0.021739131 2131:0.021739131 2781:0.021739131 2906:0.021739131 2990:0.021739131 3913:0.021739131 4247:0.021739131 4395:0.021739131 6300:0.021739131 7049:0.021739131 8752:0.043478262 18591:0.021739131 #
-10.36040810231927800089124502847 1:0.071428575 2:0.071428575 3:0.14285715 46:0.071428575 68:0.071428575 77:0.071428575 308:0.071428575 842:0.071428575 1181:0.071428575 1231:0.071428575 7150:0.071428575 9524:0.071428575 9525:0.071428575 #
-10.36040810231927800089124502847 2:0.054545455 3:0.036363635 7:0.10909091 14:0.036363635 46:0.090909094 57:0.018181818 67:0.018181818 74:0.018181818 122:0.018181818 129:0.018181818 142:0.018181818 176:0.018181818 187:0.018181818 216:0.018181818 239:0.018181818 260:0.018181818 314:0.018181818 364:0.036363635 375:0.018181818 496:0.018181818 532:0.018181818 542:0.018181818 716:0.018181818 721:0.018181818 829:0.018181818 1408:0.018181818 2346:0.036363635 2361:0.018181818 2930:0.018181818 3138:0.018181818 3922:0.018181818 3973:0.018181818 4200:0.018181818 4293:0.018181818 5044:0.018181818 7989:0.018181818 15909:0.018181818 16938:0.018181818 25435:0.018181818 25436:0.018181818 #
2.3820069829584298304325784556568 7:0.06666667 12:0.022222223 14:0.044444446 18:0.022222223 39:0.022222223 46:0.044444446 87:0.022222223 210:0.022222223 216:0.022222223 274:0.022222223 289:0.06666667 475:0.022222223 587:0.022222223 629:0.022222223 1063:0.022222223 1321:0.044444446 1851:0.022222223 1945:0.022222223 2034:0.022222223 2303:0.022222223 2361:0.022222223 2388:0.022222223 3732:0.022222223 4409:0.022222223 4436:0.022222223 4539:0.022222223 4721:0.022222223 7482:0.022222223 10150:0.044444446 13309:0.022222223 15873:0.022222223 22891:0.022222223 22892:0.022222223 22893:0.022222223 22894:0.022222223 22895:0.022222223 22896:0.022222223 #
0.31244603139481164078006258932874 1:0.016129032 2:0.096774191 3:0.016129032 7:0.032258064 14:0.016129032 18:0.016129032 32:0.032258064 36:0.016129032 46:0.016129032 63:0.048387095 77:0.032258064 87:0.016129032 95:0.016129032 144:0.016129032 169:0.016129032 218:0.048387095 376:0.016129032 403:0.032258064 605:0.032258064 831:0.016129032 864:0.016129032 1237:0.016129032 1307:0.016129032 1447:0.016129032 1582:0.016129032 1781:0.016129032 2101:0.016129032 2360:0.032258064 2459:0.016129032 2599:0.016129032 3604:0.016129032 3733:0.016129032 4451:0.016129032 4567:0.016129032 5521:0.016129032 11418:0.016129032 11419:0.016129032 42123:0.016129032 46550:0.016129032 46551:0.016129032 46552:0.016129032 46553:0.016129032 46554:0.016129032 46555:0.016129032 46556:0.016129032 46557:0.016129032 46558:0.016129032 #
0.064561007702820916165364906191826 1:0.021739131 3:0.021739131 7:0.10869565 12:0.043478262 29:0.021739131 36:0.021739131 42:0.021739131 122:0.021739131 163:0.021739131 173:0.021739131 181:0.021739131 212:0.021739131 221:0.021739131 239:0.021739131 260:0.021739131 274:0.021739131 353:0.021739131 428:0.021739131 542:0.021739131 950:0.021739131 951:0.021739131 2575:0.021739131 2599:0.021739131 2936:0.021739131 3019:0.021739131 4436:0.021739131 4901:0.021739131 7436:0.021739131 8194:0.021739131 10641:0.021739131 10693:0.021739131 11295:0.021739131 13042:0.021739131 22684:0.021739131 24385:0.021739131 25626:0.021739131 30899:0.021739131 32590:0.021739131 32591:0.021739131 32592:0.021739131 32593:0.021739131 #
-10.36040810231927800089124502847 1:0.035714287 7:0.071428575 17:0.035714287 18:0.035714287 25:0.035714287 29:0.17857143 35:0.035714287 46:0.035714287 77:0.035714287 129:0.035714287 166:0.035714287 343:0.035714287 364:0.035714287 429:0.035714287 434:0.035714287 1376:0.035714287 1413:0.035714287 1592:0.035714287 1763:0.035714287 1823:0.035714287 5591:0.035714287 6381:0.035714287 10128:0.035714287 #
-10.36040810231927800089124502847 1:0.083333336 2:0.041666668 3:0.083333336 4:0.041666668 12:0.041666668 17:0.041666668 28:0.041666668 29:0.041666668 36:0.041666668 48:0.041666668 151:0.041666668 185:0.041666668 187:0.041666668 201:0.041666668 265:0.041666668 432:0.041666668 581:0.041666668 605:0.041666668 3379:0.041666668 4552:0.041666668 8046:0.041666668 13524:0.041666668 #
-10.36040810231927800089124502847 1:0.039999999 9:0.039999999 12:0.079999998 29:0.079999998 48:0.039999999 57:0.039999999 67:0.079999998 69:0.039999999 119:0.039999999 187:0.039999999 293:0.039999999 321:0.039999999 432:0.039999999 463:0.039999999 515:0.039999999 533:0.039999999 1433:0.039999999 1882:0.039999999 2174:0.039999999 3719:0.039999999 8257:0.039999999 8258:0.039999999 #
0.039943214258325809851157828234136 1:0.035714287 3:0.053571429 7:0.053571429 9:0.017857144 12:0.017857144 18:0.017857144 35:0.017857144 36:0.017857144 46:0.017857144 66:0.017857144 67:0.017857144 69:0.017857144 74:0.053571429 144:0.017857144 151:0.017857144 163:0.017857144 168:0.017857144 174:0.035714287 176:0.017857144 187:0.017857144 201:0.017857144 218:0.017857144 219:0.017857144 224:0.017857144 341:0.017857144 378:0.017857144 385:0.017857144 512:0.017857144 605:0.017857144 1008:0.017857144 1239:0.017857144 1389:0.017857144 1581:0.017857144 1966:0.035714287 3621:0.017857144 3839:0.017857144 5306:0.017857144 5345:0.017857144 6122:0.017857144 6543:0.017857144 7049:0.017857144 8967:0.017857144 15015:0.017857144 15932:0.017857144 16907:0.017857144 19922:0.017857144 40797:0.017857144 #
6.314939664642338357225526124239 3:0.032967035 7:0.043956045 11:0.010989011 14:0.010989011 17:0.010989011 25:0.010989011 26:0.010989011 29:0.043956045 32:0.021978023 46:0.021978023 48:0.032967035 57:0.021978023 68:0.010989011 74:0.010989011 87:0.010989011 90:0.010989011 94:0.010989011 102:0.010989011 103:0.010989011 144:0.010989011 163:0.010989011 187:0.010989011 213:0.010989011 224:0.010989011 241:0.010989011 267:0.010989011 274:0.010989011 400:0.010989011 428:0.010989011 436:0.010989011 463:0.010989011 470:0.010989011 478:0.010989011 509:0.010989011 512:0.021978023 538:0.010989011 540:0.010989011 567:0.010989011 592:0.010989011 617:0.010989011 696:0.010989011 872:0.010989011 1017:0.010989011 1236:0.010989011 1489:0.010989011 1560:0.010989011 1823:0.010989011 1844:0.010989011 2398:0.010989011 2450:0.010989011 2473:0.010989011 2494:0.010989011 2728:0.010989011 2805:0.010989011 2945:0.010989011 3557:0.010989011 3634:0.010989011 4715:0.010989011 5455:0.010989011 6588:0.010989011 6896:0.010989011 7878:0.010989011 7881:0.010989011 8038:0.010989011 8614:0.010989011 9071:0.010989011 9136:0.010989011 9137:0.010989011 9138:0.010989011 9139:0.010989011 9140:0.010989011 9141:0.010989011 9142:0.010989011 9143:0.010989011 9144:0.010989011 9145:0.010989011 9146:0.010989011 #
4.4957082649180506450647953897715 1:0.018181818 3:0.036363635 7:0.036363635 11:0.054545455 12:0.018181818 14:0.036363635 26:0.018181818 29:0.07272727 36:0.018181818 46:0.018181818 57:0.018181818 69:0.018181818 72:0.018181818 74:0.036363635 191:0.018181818 200:0.018181818 243:0.018181818 261:0.018181818 265:0.018181818 269:0.018181818 285:0.018181818 293:0.018181818 386:0.018181818 427:0.018181818 469:0.018181818 636:0.018181818 848:0.018181818 872:0.018181818 916:0.018181818 943:0.018181818 967:0.018181818 1016:0.018181818 1777:0.018181818 1976:0.018181818 2131:0.018181818 3332:0.018181818 4821:0.018181818 5591:0.018181818 6249:0.018181818 12552:0.018181818 23290:0.018181818 25865:0.018181818 27729:0.018181818 29920:0.018181818 29921:0.018181818 29922:0.018181818 #
-10.36040810231927800089124502847 3:0.033333335 7:0.16666667 12:0.033333335 14:0.033333335 17:0.033333335 18:0.033333335 20:0.033333335 36:0.033333335 68:0.033333335 74:0.06666667 134:0.033333335 253:0.033333335 306:0.033333335 496:0.033333335 1736:0.033333335 1985:0.033333335 2019:0.033333335 2402:0.033333335 3247:0.033333335 3663:0.033333335 5372:0.033333335 10136:0.033333335 14293:0.033333335 16367:0.033333335 39760:0.033333335 #
-10.36040810231927800089124502847 7:0.071428575 46:0.035714287 67:0.035714287 68:0.035714287 69:0.035714287 74:0.071428575 95:0.035714287 99:0.035714287 144:0.035714287 187:0.035714287 213:0.035714287 285:0.035714287 312:0.035714287 327:0.035714287 389:0.035714287 465:0.035714287 476:0.035714287 512:0.035714287 626:0.035714287 1153:0.035714287 2494:0.035714287 3516:0.035714287 5569:0.035714287 6865:0.035714287 35469:0.035714287 40015:0.035714287 #
-10.36040810231927800089124502847 3:0.090909094 7:0.090909094 74:0.090909094 87:0.090909094 239:0.090909094 261:0.090909094 822:0.090909094 860:0.090909094 1985:0.090909094 5246:0.090909094 21791:0.090909094 #
6.9637205031147573208727408200502 1:0.014925373 2:0.029850746 3:0.029850746 7:0.044776119 8:0.014925373 12:0.029850746 14:0.029850746 29:0.029850746 30:0.014925373 46:0.059701491 48:0.014925373 63:0.044776119 68:0.029850746 74:0.014925373 99:0.014925373 144:0.014925373 156:0.014925373 163:0.014925373 173:0.014925373 216:0.014925373 229:0.014925373 268:0.014925373 308:0.014925373 400:0.014925373 406:0.014925373 465:0.029850746 498:0.014925373 519:0.014925373 581:0.014925373 626:0.014925373 695:0.014925373 802:0.014925373 863:0.014925373 971:0.014925373 978:0.014925373 1790:0.014925373 1855:0.014925373 1877:0.014925373 1974:0.029850746 3588:0.014925373 4148:0.014925373 4479:0.014925373 4540:0.014925373 5796:0.014925373 9236:0.014925373 9468:0.014925373 10739:0.014925373 13888:0.014925373 16793:0.014925373 25605:0.014925373 27020:0.014925373 27021:0.014925373 #
6.2009831389286276248640206176788 1:0.041666668 12:0.083333336 18:0.041666668 26:0.041666668 29:0.125 57:0.041666668 77:0.041666668 187:0.041666668 213:0.041666668 239:0.041666668 271:0.041666668 399:0.041666668 439:0.041666668 976:0.041666668 1058:0.041666668 3827:0.041666668 5294:0.041666668 5553:0.041666668 6975:0.041666668 9451:0.041666668 35264:0.041666668 #
1.4083489038082070976543036522344 2:0.012195121 3:0.073170729 7:0.048780486 11:0.012195121 12:0.012195121 14:0.024390243 29:0.012195121 32:0.012195121 36:0.012195121 46:0.036585364 48:0.012195121 60:0.012195121 63:0.012195121 74:0.024390243 77:0.012195121 88:0.012195121 124:0.012195121 187:0.012195121 193:0.012195121 239:0.012195121 253:0.012195121 266:0.012195121 310:0.012195121 443:0.012195121 447:0.012195121 450:0.012195121 452:0.012195121 519:0.012195121 532:0.012195121 540:0.012195121 690:0.012195121 750:0.012195121 1073:0.012195121 1309:0.012195121 1539:0.012195121 1542:0.024390243 1676:0.024390243 1780:0.012195121 1813:0.012195121 2250:0.012195121 2271:0.012195121 2471:0.012195121 3060:0.012195121 3548:0.012195121 3564:0.012195121 3590:0.012195121 3729:0.012195121 3915:0.012195121 4493:0.012195121 5030:0.012195121 5688:0.012195121 5749:0.012195121 6381:0.012195121 10693:0.012195121 11422:0.012195121 13169:0.012195121 15068:0.012195121 17233:0.012195121 17767:0.012195121 21082:0.012195121 21131:0.012195121 26015:0.012195121 31205:0.012195121 31418:0.024390243 46375:0.012195121 46376:0.012195121 47861:0.012195121 #
-10.36040810231927800089124502847 1:0.02631579 3:0.02631579 11:0.052631579 12:0.078947365 15:0.02631579 25:0.02631579 29:0.052631579 35:0.02631579 36:0.02631579 48:0.02631579 54:0.02631579 57:0.02631579 66:0.052631579 67:0.02631579 68:0.02631579 103:0.02631579 118:0.02631579 145:0.02631579 156:0.02631579 229:0.02631579 237:0.02631579 317:0.02631579 398:0.02631579 436:0.02631579 466:0.02631579 1958:0.02631579 2361:0.02631579 2379:0.02631579 3137:0.02631579 3819:0.052631579 3822:0.02631579 4261:0.02631579 #
-10.36040810231927800089124502847 1:0.018518519 7:0.037037037 12:0.09259259 14:0.018518519 29:0.074074075 36:0.018518519 57:0.018518519 66:0.018518519 77:0.018518519 103:0.018518519 144:0.018518519 187:0.018518519 208:0.018518519 227:0.018518519 241:0.037037037 289:0.018518519 308:0.018518519 311:0.018518519 399:0.018518519 450:0.018518519 458:0.018518519 562:0.018518519 605:0.018518519 710:0.018518519 825:0.018518519 1015:0.018518519 1016:0.018518519 1036:0.018518519 1043:0.018518519 1159:0.018518519 1191:0.018518519 1210:0.018518519 1755:0.018518519 2153:0.018518519 2609:0.018518519 3140:0.018518519 3818:0.018518519 3827:0.018518519 4977:0.018518519 9207:0.018518519 23470:0.018518519 29101:0.018518519 40282:0.018518519 43455:0.018518519 43456:0.018518519 #
-10.36040810231927800089124502847 3:0.043478262 18:0.086956523 29:0.13043478 30:0.043478262 77:0.043478262 129:0.043478262 144:0.043478262 252:0.043478262 321:0.086956523 398:0.043478262 399:0.043478262 465:0.043478262 637:0.043478262 699:0.043478262 1874:0.043478262 7291:0.043478262 10484:0.043478262 10898:0.043478262 28548:0.043478262 #
6.1414771414043087816025945357978 7:0.048543688 14:0.038834952 28:0.009708738 29:0.019417476 35:0.009708738 36:0.019417476 46:0.029126214 48:0.009708738 57:0.009708738 67:0.009708738 74:0.029126214 77:0.009708738 87:0.009708738 99:0.019417476 103:0.019417476 151:0.009708738 152:0.009708738 191:0.009708738 192:0.009708738 193:0.029126214 195:0.009708738 224:0.009708738 236:0.009708738 239:0.019417476 285:0.019417476 308:0.009708738 400:0.009708738 429:0.009708738 431:0.009708738 434:0.019417476 509:0.019417476 512:0.009708738 514:0.009708738 533:0.009708738 593:0.009708738 605:0.009708738 715:0.009708738 776:0.009708738 777:0.009708738 784:0.009708738 790:0.019417476 961:0.009708738 1091:0.009708738 1217:0.009708738 1321:0.009708738 1407:0.019417476 1438:0.009708738 1501:0.009708738 1529:0.009708738 1651:0.009708738 1700:0.009708738 1958:0.009708738 1966:0.009708738 3293:0.009708738 3633:0.019417476 3699:0.009708738 3719:0.009708738 3765:0.019417476 3864:0.009708738 4252:0.009708738 5567:0.009708738 5633:0.009708738 5688:0.009708738 6121:0.009708738 6622:0.009708738 6947:0.009708738 7907:0.009708738 8569:0.009708738 8703:0.009708738 10178:0.009708738 11710:0.009708738 13029:0.009708738 18728:0.009708738 18950:0.009708738 20185:0.009708738 30363:0.009708738 30378:0.009708738 30379:0.009708738 #
0.70155672742957908560867963387864 371:0.5 1985:0.5 #
0.26613019353850297932240209775046 12:0.33333334 866:0.33333334 867:0.33333334 #
-10.36040810231927800089124502847 7:0.11111111 27:0.037037037 29:0.037037037 36:0.074074075 46:0.037037037 48:0.037037037 174:0.037037037 187:0.037037037 190:0.037037037 274:0.037037037 291:0.037037037 459:0.037037037 509:0.037037037 544:0.037037037 617:0.037037037 684:0.037037037 809:0.037037037 810:0.037037037 978:0.037037037 1210:0.037037037 1598:0.037037037 2494:0.037037037 3827:0.037037037 9021:0.037037037 #
-10.36040810231927800089124502847 4:0.11111111 7:0.11111111 14:0.037037037 18:0.037037037 36:0.037037037 48:0.074074075 103:0.037037037 187:0.074074075 465:0.037037037 509:0.037037037 595:0.037037037 604:0.037037037 826:0.037037037 931:0.037037037 941:0.037037037 1784:0.037037037 4330:0.037037037 7621:0.037037037 8490:0.037037037 8886:0.037037037 10816:0.037037037 #
-10.36040810231927800089124502847 1:0.025641026 14:0.025641026 29:0.07692308 35:0.025641026 36:0.025641026 57:0.025641026 95:0.025641026 98:0.025641026 137:0.025641026 168:0.025641026 175:0.025641026 187:0.025641026 233:0.025641026 239:0.025641026 252:0.025641026 254:0.025641026 271:0.025641026 285:0.025641026 388:0.025641026 398:0.025641026 468:0.025641026 469:0.025641026 509:0.051282052 788:0.025641026 1008:0.025641026 1296:0.025641026 2108:0.025641026 4062:0.025641026 7723:0.025641026 10119:0.025641026 11145:0.051282052 11272:0.025641026 17331:0.025641026 17332:0.025641026 17333:0.025641026 #
1.1442342574638564300926191208418 9:0.16666667 18:0.16666667 126:0.16666667 144:0.16666667 515:0.16666667 816:0.16666667 #
0.54915437496396179994917474687099 1:0.043478262 2:0.043478262 3:0.021739131 7:0.086956523 14:0.021739131 27:0.021739131 46:0.021739131 48:0.021739131 63:0.021739131 193:0.021739131 216:0.021739131 239:0.043478262 260:0.021739131 271:0.021739131 311:0.021739131 337:0.021739131 403:0.021739131 427:0.021739131 547:0.021739131 710:0.021739131 751:0.021739131 802:0.021739131 1841:0.021739131 2361:0.021739131 2422:0.021739131 3251:0.021739131 3428:0.021739131 3736:0.021739131 3819:0.043478262 3821:0.021739131 3900:0.021739131 4395:0.043478262 5929:0.021739131 8851:0.021739131 9476:0.021739131 13200:0.021739131 28209:0.021739131 47551:0.021739131 #
0.39638146840195176423549128230661 12:0.16666667 14:0.083333336 46:0.083333336 68:0.083333336 273:0.083333336 619:0.083333336 1127:0.083333336 1159:0.083333336 1220:0.083333336 1337:0.083333336 39320:0.083333336 #
-10.36040810231927800089124502847 7:0.039999999 12:0.079999998 25:0.039999999 29:0.039999999 57:0.039999999 63:0.039999999 68:0.079999998 87:0.039999999 108:0.039999999 122:0.039999999 129:0.039999999 163:0.039999999 210:0.039999999 314:0.039999999 332:0.039999999 629:0.039999999 1294:0.039999999 1295:0.039999999 1927:0.039999999 2195:0.039999999 5569:0.039999999 9536:0.039999999 10584:0.039999999 #
-10.36040810231927800089124502847 3:0.047619049 7:0.047619049 12:0.095238097 18:0.047619049 29:0.047619049 46:0.047619049 66:0.047619049 193:0.047619049 207:0.047619049 285:0.047619049 356:0.047619049 605:0.047619049 644:0.047619049 1748:0.047619049 2694:0.047619049 3541:0.047619049 3564:0.047619049 12550:0.047619049 29868:0.047619049 29869:0.047619049 #
-10.36040810231927800089124502847 3:0.020833334 7:0.0625 9:0.020833334 12:0.0625 14:0.020833334 18:0.041666668 29:0.041666668 46:0.041666668 74:0.020833334 77:0.020833334 117:0.020833334 151:0.020833334 152:0.020833334 187:0.020833334 193:0.020833334 210:0.020833334 213:0.020833334 224:0.020833334 239:0.020833334 321:0.020833334 544:0.020833334 605:0.041666668 894:0.020833334 1324:0.020833334 1570:0.020833334 1763:0.020833334 1789:0.020833334 2166:0.020833334 2494:0.020833334 5035:0.020833334 8593:0.020833334 11553:0.020833334 13089:0.020833334 20316:0.041666668 37963:0.041666668 37980:0.020833334 37981:0.020833334 37982:0.020833334 #
3.1256090232115951721425517462194 4:0.055555556 7:0.055555556 29:0.055555556 48:0.055555556 63:0.055555556 88:0.055555556 156:0.055555556 187:0.055555556 341:0.055555556 403:0.055555556 452:0.055555556 947:0.055555556 988:0.055555556 2118:0.055555556 4227:0.055555556 6594:0.055555556 8868:0.055555556 22841:0.055555556 #
2.5321548258001485010026954114437 1:0.014492754 2:0.014492754 3:0.028985508 4:0.014492754 12:0.072463766 14:0.043478262 18:0.028985508 29:0.057971016 32:0.014492754 35:0.014492754 36:0.028985508 46:0.014492754 48:0.014492754 57:0.014492754 63:0.014492754 64:0.014492754 66:0.014492754 68:0.014492754 72:0.014492754 77:0.028985508 87:0.014492754 88:0.028985508 99:0.014492754 129:0.028985508 142:0.014492754 187:0.014492754 193:0.028985508 213:0.014492754 224:0.014492754 239:0.014492754 289:0.014492754 299:0.014492754 375:0.014492754 404:0.014492754 414:0.014492754 432:0.014492754 554:0.014492754 670:0.014492754 887:0.014492754 1029:0.014492754 1030:0.014492754 1185:0.014492754 1213:0.014492754 1219:0.014492754 1410:0.014492754 1889:0.014492754 4335:0.014492754 4721:0.014492754 6180:0.014492754 14252:0.028985508 23769:0.014492754 31312:0.014492754 #
2.680722907513269248624965257477 57:0.1 87:0.1 99:0.1 103:0.1 144:0.1 187:0.1 475:0.1 3283:0.1 6422:0.1 44906:0.1 #
-10.36040810231927800089124502847 7:0.052631579 11:0.052631579 14:0.052631579 29:0.052631579 48:0.052631579 57:0.052631579 163:0.052631579 237:0.052631579 465:0.10526316 475:0.052631579 515:0.052631579 809:0.052631579 872:0.052631579 3926:0.052631579 8450:0.052631579 8455:0.052631579 8503:0.052631579 11124:0.052631579 #
-10.36040810231927800089124502847 1:0.051282052 2:0.051282052 7:0.051282052 18:0.025641026 29:0.07692308 35:0.025641026 48:0.025641026 57:0.025641026 69:0.025641026 87:0.051282052 137:0.025641026 185:0.025641026 191:0.025641026 206:0.025641026 239:0.025641026 260:0.025641026 310:0.025641026 327:0.025641026 415:0.025641026 581:0.025641026 1085:0.025641026 2740:0.025641026 2892:0.025641026 3818:0.025641026 3822:0.025641026 3827:0.025641026 4261:0.025641026 7878:0.025641026 16075:0.025641026 18799:0.025641026 24916:0.025641026 24917:0.025641026 24918:0.025641026 #
-10.36040810231927800089124502847 14:0.037037037 35:0.037037037 48:0.037037037 57:0.074074075 87:0.037037037 95:0.037037037 144:0.074074075 166:0.037037037 242:0.037037037 285:0.037037037 432:0.037037037 487:0.037037037 509:0.037037037 589:0.037037037 1499:0.037037037 1996:0.074074075 2122:0.037037037 3252:0.037037037 3253:0.037037037 3254:0.037037037 3255:0.037037037 3256:0.037037037 3257:0.037037037 3258:0.037037037 #
9.8417596865092491498216986656189 1:0.030303031 2:0.030303031 3:0.060606062 12:0.090909094 25:0.030303031 29:0.030303031 36:0.060606062 63:0.030303031 68:0.030303031 77:0.060606062 103:0.030303031 129:0.060606062 156:0.060606062 185:0.030303031 432:0.030303031 562:0.030303031 710:0.030303031 826:0.030303031 1011:0.030303031 1424:0.030303031 2195:0.060606062 2303:0.030303031 4880:0.030303031 5431:0.030303031 9633:0.030303031 #
8.3278492954721059504663571715355 3:0.017241379 9:0.017241379 12:0.12068965 14:0.017241379 17:0.05172414 18:0.05172414 27:0.017241379 29:0.05172414 30:0.017241379 46:0.068965517 57:0.017241379 68:0.017241379 128:0.017241379 130:0.017241379 187:0.034482758 193:0.017241379 210:0.017241379 227:0.017241379 239:0.017241379 242:0.05172414 282:0.017241379 376:0.017241379 738:0.017241379 957:0.017241379 971:0.017241379 1098:0.034482758 1430:0.017241379 1769:0.017241379 1823:0.017241379 1927:0.017241379 4415:0.017241379 4580:0.017241379 13196:0.017241379 20787:0.017241379 22086:0.017241379 24282:0.017241379 41110:0.017241379 41111:0.017241379 41112:0.017241379 #
2.6101140958924133883556351065636 1:0.015625 3:0.0625 7:0.015625 10:0.015625 12:0.03125 14:0.015625 29:0.03125 48:0.03125 57:0.015625 64:0.015625 66:0.015625 70:0.015625 74:0.03125 129:0.015625 185:0.015625 187:0.03125 230:0.015625 231:0.015625 237:0.015625 265:0.015625 266:0.015625 270:0.015625 285:0.015625 341:0.015625 367:0.015625 386:0.015625 427:0.015625 434:0.015625 435:0.03125 454:0.015625 512:0.015625 690:0.015625 859:0.015625 901:0.015625 971:0.015625 1039:0.015625 1235:0.015625 1297:0.015625 1536:0.015625 1813:0.015625 1823:0.015625 2250:0.015625 2859:0.015625 3552:0.015625 3661:0.015625 5347:0.015625 5831:0.015625 5851:0.015625 6441:0.03125 8038:0.015625 31331:0.015625 41344:0.015625 41345:0.015625 41346:0.015625 #
-10.36040810231927800089124502847 3:0.14285715 68:0.14285715 103:0.14285715 106:0.14285715 213:0.14285715 2166:0.14285715 2167:0.14285715 #
-10.36040810231927800089124502847 2:0.032258064 3:0.064516127 12:0.096774191 18:0.032258064 25:0.032258064 29:0.032258064 36:0.032258064 60:0.032258064 77:0.032258064 187:0.032258064 265:0.032258064 266:0.032258064 273:0.032258064 310:0.032258064 337:0.032258064 366:0.032258064 518:0.032258064 948:0.032258064 964:0.032258064 1034:0.032258064 1112:0.032258064 1214:0.032258064 1861:0.032258064 2016:0.032258064 2276:0.032258064 7122:0.032258064 10512:0.032258064 16602:0.032258064 #
-10.36040810231927800089124502847 2:0.022727273 3:0.022727273 7:0.045454547 11:0.045454547 12:0.13636364 14:0.022727273 29:0.022727273 46:0.022727273 63:0.045454547 66:0.022727273 67:0.022727273 95:0.022727273 128:0.022727273 142:0.022727273 144:0.045454547 156:0.022727273 291:0.022727273 310:0.022727273 398:0.045454547 466:0.022727273 475:0.022727273 508:0.022727273 656:0.022727273 975:0.022727273 1185:0.022727273 1726:0.022727273 2371:0.022727273 2622:0.022727273 2876:0.022727273 3137:0.022727273 4314:0.022727273 5043:0.022727273 12773:0.022727273 14282:0.022727273 #
0.95707729329706836551849846728146 1:0.017241379 3:0.017241379 7:0.017241379 12:0.068965517 14:0.034482758 25:0.034482758 29:0.05172414 36:0.034482758 46:0.034482758 57:0.034482758 68:0.017241379 168:0.017241379 193:0.017241379 212:0.017241379 239:0.017241379 274:0.017241379 285:0.017241379 288:0.017241379 310:0.017241379 317:0.017241379 410:0.017241379 427:0.017241379 432:0.017241379 496:0.017241379 578:0.017241379 587:0.017241379 592:0.017241379 710:0.017241379 905:0.017241379 924:0.017241379 967:0.017241379 1007:0.017241379 1015:0.017241379 1345:0.017241379 1613:0.017241379 1781:0.017241379 1820:0.034482758 1996:0.017241379 2708:0.017241379 2922:0.017241379 3806:0.017241379 4567:0.017241379 5783:0.017241379 6441:0.034482758 11691:0.017241379 15962:0.017241379 #
0.48940112433766103094967547804117 4:0.052631579 7:0.052631579 29:0.052631579 144:0.052631579 213:0.052631579 289:0.052631579 291:0.052631579 916:0.052631579 1242:0.052631579 1407:0.052631579 2433:0.052631579 2609:0.052631579 3818:0.052631579 4038:0.052631579 4084:0.052631579 7792:0.052631579 8704:0.052631579 8721:0.052631579 13992:0.052631579 #
6.5135433211486990501271066023037 2:0.06666667 7:0.13333334 12:0.033333335 14:0.033333335 25:0.033333335 29:0.033333335 39:0.06666667 48:0.033333335 74:0.033333335 187:0.033333335 242:0.033333335 289:0.033333335 465:0.06666667 633:0.033333335 648:0.033333335 670:0.033333335 1996:0.033333335 2577:0.033333335 2611:0.033333335 3613:0.033333335 4264:0.033333335 9666:0.033333335 9707:0.033333335 9906:0.033333335 #
-10.36040810231927800089124502847 1:0.021739131 7:0.10869565 14:0.065217391 29:0.043478262 46:0.086956523 77:0.021739131 112:0.021739131 129:0.021739131 187:0.021739131 210:0.043478262 213:0.021739131 239:0.043478262 294:0.021739131 328:0.021739131 376:0.021739131 398:0.021739131 435:0.021739131 439:0.021739131 609:0.021739131 816:0.021739131 908:0.021739131 975:0.021739131 1060:0.021739131 1120:0.021739131 1138:0.021739131 1338:0.021739131 1357:0.021739131 3822:0.021739131 4009:0.021739131 4010:0.021739131 4011:0.021739131 4012:0.021739131 4013:0.021739131 4014:0.021739131 #
-10.36040810231927800089124502847 7:0.13333334 14:0.06666667 35:0.033333335 36:0.033333335 46:0.06666667 57:0.033333335 70:0.033333335 221:0.033333335 239:0.033333335 321:0.033333335 655:0.033333335 1402:0.033333335 1556:0.033333335 1623:0.033333335 1676:0.033333335 1691:0.033333335 2284:0.033333335 2832:0.033333335 2990:0.033333335 3125:0.033333335 3254:0.033333335 4335:0.033333335 4374:0.033333335 6336:0.033333335 7162:0.033333335 #
-10.36040810231927800089124502847 2:0.032786883 7:0.13114753 12:0.016393442 14:0.016393442 29:0.032786883 36:0.065573767 46:0.016393442 54:0.016393442 55:0.032786883 63:0.032786883 68:0.016393442 83:0.016393442 87:0.016393442 126:0.016393442 127:0.016393442 128:0.016393442 129:0.016393442 138:0.016393442 145:0.016393442 156:0.032786883 157:0.016393442 187:0.016393442 267:0.016393442 375:0.016393442 398:0.016393442 403:0.016393442 432:0.016393442 512:0.016393442 519:0.016393442 626:0.016393442 707:0.016393442 967:0.016393442 1140:0.016393442 1200:0.016393442 1780:0.016393442 1932:0.016393442 3935:0.016393442 4514:0.016393442 5740:0.016393442 5888:0.016393442 6267:0.016393442 7624:0.016393442 7625:0.016393442 7626:0.016393442 7627:0.016393442 7628:0.016393442 #
0.53121185793565217636569286696613 2997:0.045454547 9530:0.045454547 16309:0.045454547 16310:0.045454547 20469:0.045454547 20476:0.045454547 20477:0.045454547 21786:0.045454547 22806:0.090909094 22807:0.045454547 22808:0.045454547 22809:0.045454547 22810:0.045454547 22811:0.045454547 22812:0.045454547 22813:0.045454547 22814:0.045454547 22815:0.045454547 22816:0.045454547 22817:0.045454547 22818:0.045454547 #
4.2013332638803646545966330450028 7:0.081632651 18:0.020408163 29:0.020408163 35:0.020408163 36:0.020408163 46:0.081632651 57:0.020408163 99:0.020408163 103:0.020408163 118:0.020408163 124:0.020408163 128:0.020408163 144:0.020408163 193:0.020408163 213:0.020408163 239:0.020408163 253:0.020408163 289:0.020408163 317:0.020408163 443:0.020408163 469:0.020408163 784:0.020408163 890:0.020408163 1138:0.020408163 1357:0.020408163 1386:0.020408163 1781:0.020408163 2061:0.020408163 2165:0.020408163 2922:0.020408163 3638:0.020408163 3670:0.020408163 3817:0.06122449 3818:0.020408163 3827:0.020408163 4038:0.020408163 4040:0.020408163 8523:0.020408163 9995:0.020408163 11273:0.020408163 32817:0.020408163 #
5.5390245899796326511932420544326 3:0.012048192 7:0.072289154 12:0.084337346 18:0.012048192 25:0.024096385 26:0.012048192 29:0.012048192 36:0.012048192 46:0.024096385 48:0.024096385 63:0.012048192 74:0.024096385 87:0.012048192 99:0.012048192 103:0.012048192 144:0.012048192 156:0.024096385 157:0.024096385 163:0.012048192 187:0.012048192 210:0.012048192 213:0.012048192 214:0.024096385 237:0.024096385 239:0.012048192 262:0.012048192 267:0.012048192 294:0.012048192 339:0.012048192 364:0.024096385 374:0.012048192 403:0.012048192 404:0.012048192 414:0.012048192 513:0.012048192 533:0.012048192 542:0.012048192 547:0.012048192 619:0.012048192 649:0.012048192 731:0.012048192 944:0.012048192 1026:0.024096385 1424:0.012048192 1447:0.012048192 1454:0.012048192 1803:0.012048192 1829:0.024096385 1925:0.012048192 1926:0.012048192 2065:0.012048192 2429:0.012048192 4317:0.012048192 4319:0.012048192 5733:0.012048192 8158:0.012048192 10111:0.012048192 12120:0.012048192 17303:0.012048192 32223:0.012048192 32224:0.012048192 #
-10.36040810231927800089124502847 12:0.079999998 25:0.079999998 26:0.039999999 32:0.039999999 48:0.039999999 63:0.039999999 74:0.039999999 103:0.039999999 158:0.039999999 187:0.039999999 213:0.039999999 313:0.039999999 378:0.079999998 386:0.039999999 403:0.039999999 450:0.039999999 587:0.039999999 1438:0.039999999 4920:0.039999999 5539:0.039999999 6841:0.039999999 10047:0.039999999 #
-10.36040810231927800089124502847 1:0.033333335 2:0.033333335 3:0.1 12:0.033333335 14:0.033333335 29:0.033333335 30:0.033333335 46:0.033333335 57:0.033333335 74:0.033333335 103:0.033333335 173:0.033333335 187:0.033333335 193:0.033333335 230:0.033333335 239:0.033333335 265:0.033333335 266:0.033333335 274:0.033333335 619:0.033333335 951:0.033333335 1140:0.033333335 1430:0.033333335 1915:0.033333335 6882:0.033333335 6989:0.033333335 15267:0.033333335 34449:0.033333335 #
-10.36040810231927800089124502847 2:0.06666667 3:0.033333335 11:0.033333335 12:0.1 14:0.033333335 26:0.033333335 35:0.033333335 74:0.033333335 137:0.06666667 187:0.06666667 191:0.033333335 643:0.033333335 916:0.033333335 1053:0.033333335 1459:0.033333335 1581:0.033333335 1843:0.033333335 1910:0.033333335 3096:0.033333335 3751:0.033333335 5218:0.033333335 8413:0.033333335 9538:0.033333335 19989:0.033333335 27291:0.033333335 #
0.075870015304000837375042465282604 1:0.041666668 3:0.041666668 7:0.083333336 14:0.041666668 17:0.041666668 29:0.041666668 36:0.041666668 68:0.041666668 126:0.041666668 144:0.083333336 285:0.041666668 347:0.041666668 512:0.041666668 948:0.041666668 1161:0.041666668 1464:0.041666668 2390:0.041666668 4894:0.041666668 5481:0.041666668 5628:0.041666668 7151:0.041666668 28422:0.041666668 #
1.3582589877820794299623230472207 1:0.024193548 2:0.0080645159 3:0.0080645159 7:0.040322579 8:0.016129032 9:0.0080645159 12:0.016129032 14:0.024193548 18:0.016129032 20:0.016129032 27:0.0080645159 30:0.0080645159 36:0.024193548 46:0.024193548 57:0.016129032 60:0.0080645159 87:0.016129032 103:0.0080645159 144:0.0080645159 173:0.0080645159 191:0.0080645159 193:0.0080645159 200:0.0080645159 208:0.0080645159 222:0.0080645159 230:0.0080645159 235:0.0080645159 239:0.024193548 260:0.0080645159 275:0.0080645159 285:0.0080645159 287:0.0080645159 289:0.016129032 290:0.0080645159 291:0.0080645159 306:0.0080645159 310:0.016129032 337:0.0080645159 378:0.0080645159 384:0.0080645159 385:0.0080645159 386:0.0080645159 428:0.0080645159 435:0.0080645159 475:0.0080645159 478:0.0080645159 519:0.0080645159 556:0.0080645159 584:0.0080645159 626:0.0080645159 753:0.0080645159 841:0.0080645159 872:0.0080645159 924:0.0080645159 1246:0.016129032 1247:0.0080645159 1433:0.0080645159 1519:0.0080645159 1613:0.0080645159 1660:0.0080645159 1694:0.016129032 1869:0.0080645159 1966:0.0080645159 2038:0.0080645159 2039:0.0080645159 2040:0.0080645159 2041:0.0080645159 2042:0.024193548 2043:0.0080645159 2044:0.0080645159 2045:0.0080645159 2046:0.0080645159 2047:0.0080645159 2048:0.0080645159 2049:0.0080645159 2050:0.0080645159 2051:0.0080645159 2052:0.0080645159 2053:0.0080645159 2054:0.0080645159 2055:0.0080645159 2056:0.0080645159 2057:0.0080645159 2058:0.0080645159 2059:0.0080645159 2060:0.0080645159 2061:0.0080645159 2062:0.0080645159 2063:0.0080645159 2064:0.0080645159 2065:0.0080645159 2066:0.0080645159 2067:0.0080645159 2068:0.0080645159 2069:0.0080645159 2070:0.0080645159 2071:0.0080645159 2072:0.0080645159 #
5.8803541750147019229189027100801 7:0.035714287 26:0.035714287 30:0.035714287 36:0.035714287 46:0.035714287 70:0.035714287 87:0.035714287 142:0.035714287 165:0.035714287 180:0.035714287 185:0.035714287 193:0.035714287 214:0.071428575 241:0.035714287 285:0.035714287 450:0.035714287 454:0.035714287 469:0.035714287 509:0.035714287 512:0.035714287 734:0.035714287 790:0.035714287 3354:0.035714287 4350:0.035714287 28731:0.035714287 30885:0.035714287 30886:0.035714287 #
-10.36040810231927800089124502847 3:0.035714287 7:0.10714286 14:0.035714287 29:0.071428575 30:0.035714287 46:0.10714286 48:0.035714287 60:0.035714287 180:0.035714287 193:0.035714287 428:0.035714287 466:0.035714287 512:0.035714287 621:0.035714287 1194:0.035714287 2936:0.071428575 3225:0.035714287 3695:0.035714287 6336:0.035714287 6953:0.035714287 7093:0.035714287 37665:0.035714287 #
-10.36040810231927800089124502847 1:0.018867925 3:0.03773585 7:0.1509434 12:0.018867925 20:0.018867925 36:0.03773585 48:0.018867925 63:0.03773585 87:0.018867925 103:0.018867925 156:0.018867925 185:0.018867925 187:0.018867925 224:0.018867925 239:0.018867925 265:0.018867925 270:0.018867925 308:0.018867925 542:0.018867925 848:0.018867925 1383:0.018867925 1776:0.018867925 1843:0.018867925 2087:0.018867925 3466:0.018867925 4421:0.018867925 5331:0.018867925 6441:0.056603774 7618:0.018867925 8929:0.018867925 9000:0.018867925 10214:0.018867925 13374:0.018867925 17804:0.018867925 20191:0.018867925 21723:0.018867925 23135:0.018867925 35365:0.018867925 35366:0.018867925 35367:0.018867925 35368:0.018867925 #
-10.36040810231927800089124502847 7:0.10714286 14:0.035714287 36:0.035714287 57:0.035714287 63:0.035714287 98:0.035714287 161:0.035714287 163:0.035714287 173:0.071428575 421:0.035714287 562:0.035714287 605:0.035714287 1073:0.035714287 1192:0.035714287 1296:0.035714287 2121:0.035714287 2740:0.035714287 2998:0.035714287 3819:0.035714287 3827:0.035714287 4248:0.035714287 5108:0.035714287 8008:0.035714287 19008:0.035714287 19009:0.035714287 #
1.7893077124541321154538309201598 3:0.02739726 7:0.075342469 11:0.020547945 12:0.020547945 14:0.006849315 25:0.006849315 26:0.006849315 27:0.006849315 29:0.047945205 30:0.01369863 34:0.006849315 35:0.006849315 36:0.01369863 45:0.006849315 46:0.006849315 48:0.04109589 63:0.006849315 68:0.006849315 74:0.01369863 87:0.01369863 95:0.006849315 99:0.01369863 144:0.01369863 156:0.01369863 157:0.006849315 158:0.006849315 174:0.006849315 187:0.01369863 207:0.006849315 210:0.006849315 213:0.006849315 220:0.006849315 224:0.01369863 237:0.006849315 238:0.01369863 240:0.006849315 252:0.006849315 277:0.006849315 278:0.006849315 293:0.006849315 308:0.01369863 349:0.01369863 398:0.01369863 403:0.006849315 450:0.006849315 463:0.006849315 470:0.006849315 475:0.006849315 478:0.006849315 487:0.006849315 587:0.006849315 731:0.006849315 776:0.006849315 788:0.006849315 831:0.01369863 883:0.006849315 890:0.006849315 948:0.006849315 954:0.006849315 967:0.006849315 1043:0.006849315 1052:0.006849315 1112:0.006849315 1196:0.006849315 1531:0.006849315 1730:0.006849315 1939:0.006849315 1970:0.006849315 2174:0.006849315 2212:0.006849315 2303:0.006849315 2428:0.006849315 2448:0.006849315 2945:0.006849315 3609:0.006849315 3883:0.006849315 4489:0.006849315 5259:0.006849315 7348:0.006849315 8536:0.006849315 10319:0.006849315 13950:0.006849315 14517:0.006849315 15316:0.006849315 22697:0.006849315 26356:0.006849315 28164:0.006849315 29494:0.006849315 32764:0.006849315 33580:0.006849315 36844:0.006849315 36915:0.006849315 37552:0.01369863 37612:0.01369863 37613:0.006849315 37614:0.006849315 37615:0.006849315 37616:0.006849315 37617:0.006849315 37618:0.006849315 37619:0.006849315 37620:0.006849315 #
1.2431517148073165657251593074761 18:0.045454547 25:0.045454547 48:0.045454547 57:0.045454547 63:0.045454547 137:0.045454547 178:0.045454547 187:0.045454547 210:0.045454547 266:0.090909094 366:0.045454547 403:0.045454547 721:0.045454547 788:0.045454547 872:0.045454547 1112:0.045454547 1192:0.045454547 1805:0.045454547 1898:0.045454547 2334:0.045454547 2564:0.045454547 #
5.4829266032745636039180681109428 1:0.03846154 12:0.03846154 18:0.07692308 20:0.07692308 29:0.07692308 46:0.03846154 167:0.03846154 187:0.07692308 191:0.03846154 208:0.03846154 366:0.03846154 465:0.03846154 609:0.03846154 710:0.03846154 1248:0.03846154 1755:0.03846154 1763:0.03846154 2344:0.03846154 3540:0.03846154 12400:0.03846154 44709:0.03846154 44710:0.03846154 #
-10.36040810231927800089124502847 2:0.047619049 12:0.095238097 18:0.095238097 45:0.047619049 68:0.047619049 77:0.095238097 152:0.047619049 218:0.047619049 389:0.047619049 469:0.047619049 775:0.047619049 1036:0.047619049 1261:0.047619049 5534:0.047619049 5740:0.047619049 8172:0.047619049 20142:0.047619049 20143:0.047619049 #
-10.36040810231927800089124502847 2:0.041666668 12:0.083333336 18:0.041666668 29:0.041666668 48:0.041666668 60:0.041666668 63:0.083333336 182:0.041666668 187:0.041666668 265:0.041666668 266:0.041666668 267:0.041666668 268:0.041666668 321:0.041666668 366:0.041666668 753:0.041666668 790:0.041666668 1112:0.041666668 2806:0.041666668 3045:0.041666668 3387:0.041666668 6355:0.041666668 #
-10.36040810231927800089124502847 57:0.090909094 93:0.090909094 237:0.090909094 266:0.090909094 410:0.090909094 465:0.090909094 475:0.090909094 780:0.090909094 1138:0.090909094 2494:0.090909094 3032:0.090909094 #
4.3052882208488085780118126422167 1:0.013333334 2:0.013333334 3:0.039999999 4:0.013333334 7:0.013333334 14:0.039999999 15:0.013333334 17:0.013333334 18:0.026666667 25:0.013333334 26:0.026666667 27:0.013333334 36:0.013333334 45:0.039999999 46:0.013333334 48:0.013333334 67:0.026666667 69:0.013333334 74:0.026666667 87:0.013333334 163:0.026666667 176:0.013333334 186:0.013333334 187:0.013333334 193:0.013333334 236:0.013333334 239:0.013333334 287:0.013333334 403:0.013333334 515:0.013333334 592:0.013333334 644:0.013333334 692:0.013333334 726:0.013333334 848:0.013333334 1361:0.013333334 1430:0.013333334 1483:0.013333334 1883:0.013333334 1939:0.013333334 1966:0.013333334 2564:0.013333334 3096:0.013333334 3940:0.013333334 4451:0.013333334 4928:0.013333334 6403:0.013333334 6468:0.013333334 6586:0.013333334 7719:0.013333334 11208:0.013333334 11752:0.013333334 12449:0.013333334 13642:0.013333334 31922:0.013333334 31923:0.013333334 31924:0.013333334 31925:0.013333334 31926:0.013333334 31927:0.013333334 31928:0.013333334 31929:0.013333334 31930:0.013333334 31931:0.013333334 #
10.36040810231927800089124502847 1:0.0074626864 3:0.0074626864 7:0.059701491 12:0.044776119 14:0.029850746 18:0.02238806 20:0.014925373 25:0.0074626864 29:0.02238806 36:0.0074626864 46:0.067164183 48:0.014925373 57:0.0074626864 63:0.0074626864 66:0.0074626864 74:0.0074626864 77:0.0074626864 87:0.02238806 99:0.014925373 116:0.0074626864 128:0.014925373 130:0.014925373 132:0.0074626864 141:0.0074626864 144:0.014925373 152:0.0074626864 184:0.0074626864 187:0.0074626864 193:0.0074626864 201:0.0074626864 216:0.0074626864 235:0.0074626864 237:0.0074626864 239:0.0074626864 268:0.0074626864 274:0.02238806 288:0.0074626864 293:0.014925373 311:0.0074626864 338:0.0074626864 339:0.0074626864 426:0.0074626864 428:0.014925373 454:0.0074626864 501:0.0074626864 533:0.0074626864 542:0.014925373 566:0.0074626864 614:0.0074626864 710:0.0074626864 775:0.0074626864 968:0.014925373 1160:0.0074626864 1178:0.0074626864 1212:0.0074626864 1329:0.0074626864 1767:0.0074626864 2019:0.0074626864 2428:0.0074626864 2554:0.0074626864 3116:0.0074626864 3389:0.0074626864 3522:0.0074626864 4476:0.014925373 4572:0.0074626864 4654:0.0074626864 4737:0.0074626864 4743:0.0074626864 4752:0.0074626864 5006:0.0074626864 7075:0.0074626864 7391:0.0074626864 7733:0.0074626864 7905:0.0074626864 8017:0.0074626864 8129:0.0074626864 9633:0.0074626864 10919:0.0074626864 11072:0.0074626864 12172:0.0074626864 13347:0.0074626864 14822:0.014925373 17037:0.0074626864 18462:0.0074626864 20141:0.0074626864 22488:0.0074626864 22489:0.0074626864 22490:0.0074626864 22491:0.0074626864 22492:0.0074626864 22493:0.0074626864 #
10.36040810231927800089124502847 1:0.010989011 2:0.018315019 3:0.014652015 7:0.16117217 12:0.014652015 13:0.0073260074 14:0.018315019 18:0.010989011 25:0.0036630037 29:0.010989011 30:0.0036630037 32:0.0073260074 36:0.047619049 40:0.0036630037 46:0.010989011 48:0.0073260074 60:0.0036630037 63:0.0073260074 68:0.010989011 72:0.0036630037 74:0.0073260074 87:0.010989011 103:0.014652015 122:0.0036630037 124:0.0036630037 127:0.0036630037 128:0.0036630037 129:0.0036630037 144:0.029304029 176:0.0036630037 187:0.0073260074 193:0.0036630037 208:0.0036630037 216:0.0073260074 224:0.0036630037 237:0.0036630037 239:0.025641026 242:0.0036630037 243:0.010989011 274:0.0036630037 308:0.0036630037 310:0.0073260074 311:0.0036630037 332:0.0036630037 362:0.0073260074 366:0.0073260074 376:0.0073260074 398:0.0036630037 403:0.0036630037 404:0.0036630037 427:0.0036630037 436:0.0036630037 469:0.0036630037 470:0.0036630037 475:0.0073260074 495:0.0036630037 509:0.0036630037 518:0.0036630037 542:0.0073260074 710:0.0073260074 718:0.014652015 776:0.0036630037 783:0.0036630037 839:0.0036630037 910:0.0036630037 971:0.0073260074 975:0.0073260074 1174:0.0036630037 1192:0.0036630037 1210:0.0036630037 1410:0.0036630037 1676:0.010989011 1772:0.0036630037 1781:0.0036630037 1826:0.0036630037 2032:0.0036630037 2124:0.0036630037 2128:0.0036630037 2554:0.0036630037 2646:0.0036630037 2676:0.0036630037 2922:0.0036630037 2979:0.0036630037 2990:0.025641026 3245:0.0036630037 3270:0.0036630037 3638:0.0036630037 3663:0.0036630037 3697:0.0036630037 3819:0.018315019 3827:0.0036630037 3866:0.0036630037 4022:0.0036630037 4275:0.0036630037 4280:0.0073260074 4378:0.0036630037 4432:0.0036630037 4496:0.0036630037 4868:0.0036630037 5035:0.010989011 5117:0.0036630037 6338:0.0036630037 6597:0.0036630037 6869:0.010989011 7082:0.0036630037 7257:0.0036630037 7505:0.0036630037 8547:0.0073260074 8742:0.0036630037 9200:0.0036630037 9546:0.0036630037 10353:0.0036630037 10482:0.0036630037 11293:0.0036630037 11389:0.0036630037 11483:0.0036630037 13665:0.0073260074 13692:0.0073260074 16063:0.0036630037 18336:0.0073260074 19114:0.0073260074 19118:0.0036630037 19304:0.0036630037 19305:0.0036630037 19306:0.0073260074 19307:0.0036630037 19308:0.0036630037 19309:0.0073260074 19310:0.0036630037 19311:0.0036630037 19312:0.0036630037 #
-10.36040810231927800089124502847 3:0.050000001 7:0.1 12:0.050000001 36:0.050000001 46:0.050000001 208:0.1 212:0.050000001 285:0.050000001 446:0.050000001 1578:0.050000001 1978:0.050000001 2214:0.050000001 2756:0.050000001 3663:0.050000001 6255:0.050000001 8610:0.050000001 11765:0.050000001 33202:0.050000001 #
-10.36040810231927800089124502847 3:0.06666667 7:0.06666667 28:0.06666667 144:0.13333334 214:0.06666667 239:0.06666667 321:0.06666667 478:0.06666667 707:0.06666667 733:0.06666667 1034:0.06666667 2250:0.06666667 6328:0.06666667 12770:0.06666667 #
-10.36040810231927800089124502847 3:0.033333335 7:0.1 14:0.033333335 20:0.033333335 45:0.033333335 46:0.033333335 56:0.033333335 74:0.033333335 77:0.033333335 93:0.033333335 144:0.033333335 145:0.033333335 187:0.033333335 224:0.033333335 274:0.033333335 428:0.033333335 512:0.1 621:0.033333335 666:0.033333335 731:0.033333335 760:0.033333335 844:0.033333335 3731:0.033333335 11724:0.033333335 13103:0.033333335 13104:0.033333335 #
0.60780783875677002470183651894331 7:0.079999998 12:0.039999999 29:0.039999999 32:0.039999999 35:0.039999999 36:0.039999999 63:0.039999999 87:0.039999999 163:0.039999999 193:0.039999999 410:0.039999999 459:0.039999999 475:0.039999999 695:0.039999999 734:0.039999999 978:0.039999999 1227:0.039999999 1241:0.039999999 1594:0.039999999 4012:0.039999999 10546:0.039999999 14651:0.039999999 22086:0.039999999 39034:0.039999999 #
2.2895120381338003312521323096007 1:0.020408163 2:0.020408163 3:0.06122449 7:0.081632651 12:0.040816326 36:0.020408163 46:0.020408163 48:0.020408163 68:0.020408163 74:0.020408163 78:0.020408163 88:0.040816326 127:0.020408163 163:0.020408163 193:0.020408163 239:0.020408163 253:0.020408163 260:0.020408163 281:0.020408163 566:0.020408163 567:0.020408163 957:0.020408163 1127:0.020408163 1272:0.020408163 1454:0.020408163 1815:0.020408163 1927:0.020408163 2166:0.020408163 2483:0.020408163 2851:0.020408163 2979:0.020408163 3633:0.020408163 4335:0.040816326 4398:0.020408163 4422:0.020408163 4518:0.020408163 4539:0.020408163 6883:0.020408163 16411:0.020408163 18667:0.020408163 18668:0.020408163 #
2.8787558259536663030075942515396 3:0.045454547 12:0.18181819 14:0.090909094 23:0.045454547 48:0.045454547 57:0.045454547 103:0.045454547 274:0.045454547 278:0.045454547 336:0.045454547 341:0.045454547 425:0.045454547 873:0.045454547 1247:0.045454547 1331:0.045454547 2275:0.045454547 2840:0.045454547 22481:0.045454547 #
-10.36040810231927800089124502847 1:0.039215688 2:0.019607844 7:0.039215688 12:0.098039217 14:0.019607844 18:0.039215688 20:0.039215688 29:0.039215688 46:0.039215688 48:0.019607844 57:0.039215688 165:0.019607844 190:0.019607844 191:0.019607844 200:0.019607844 213:0.019607844 221:0.019607844 231:0.019607844 239:0.019607844 266:0.019607844 344:0.019607844 377:0.019607844 462:0.039215688 463:0.019607844 496:0.019607844 523:0.019607844 742:0.019607844 1073:0.019607844 1210:0.019607844 1382:0.019607844 1762:0.019607844 1820:0.019607844 2304:0.019607844 3912:0.019607844 4876:0.019607844 5115:0.019607844 14701:0.019607844 44591:0.019607844 44740:0.019607844 #
-10.36040810231927800089124502847 3:0.030303031 7:0.060606062 12:0.060606062 20:0.060606062 46:0.060606062 47:0.030303031 48:0.030303031 57:0.030303031 96:0.030303031 156:0.030303031 165:0.030303031 187:0.030303031 435:0.030303031 464:0.030303031 519:0.030303031 535:0.030303031 609:0.030303031 815:0.030303031 921:0.030303031 1220:0.060606062 1558:0.030303031 1829:0.030303031 4864:0.030303031 5356:0.030303031 6212:0.030303031 10256:0.030303031 15073:0.030303031 38652:0.030303031 #
-10.36040810231927800089124502847 1:0.043478262 3:0.043478262 7:0.043478262 12:0.086956523 18:0.043478262 20:0.13043478 137:0.043478262 187:0.043478262 216:0.043478262 239:0.043478262 274:0.043478262 438:0.043478262 556:0.043478262 692:0.043478262 802:0.043478262 2229:0.043478262 3610:0.043478262 5146:0.043478262 10618:0.043478262 13952:0.043478262 #
5.8506987994009698184072476578876 1:0.033898305 2:0.016949153 3:0.016949153 7:0.033898305 12:0.016949153 14:0.033898305 18:0.016949153 25:0.016949153 26:0.016949153 29:0.06779661 30:0.016949153 35:0.016949153 46:0.033898305 57:0.016949153 63:0.016949153 66:0.016949153 77:0.016949153 78:0.016949153 87:0.016949153 88:0.016949153 119:0.016949153 156:0.033898305 187:0.016949153 237:0.016949153 294:0.016949153 321:0.016949153 338:0.016949153 353:0.016949153 408:0.016949153 439:0.016949153 532:0.016949153 542:0.016949153 976:0.016949153 1008:0.016949153 1076:0.016949153 1138:0.016949153 1194:0.016949153 1314:0.016949153 1598:0.016949153 1605:0.016949153 4881:0.016949153 5038:0.016949153 5591:0.016949153 6303:0.016949153 7312:0.016949153 7337:0.016949153 7814:0.016949153 13152:0.016949153 15938:0.016949153 18320:0.016949153 25296:0.016949153 #
-10.36040810231927800089124502847 1:0.027027028 2:0.027027028 3:0.027027028 7:0.10810811 12:0.054054055 14:0.081081077 18:0.027027028 46:0.027027028 48:0.027027028 113:0.027027028 174:0.027027028 200:0.027027028 201:0.027027028 239:0.027027028 242:0.027027028 301:0.027027028 647:0.027027028 648:0.027027028 1359:0.027027028 1888:0.027027028 3142:0.027027028 4303:0.027027028 7607:0.027027028 7718:0.027027028 7792:0.027027028 7806:0.027027028 12322:0.027027028 17664:0.027027028 19499:0.027027028 19500:0.027027028 19501:0.027027028 #
-10.36040810231927800089124502847 3:0.02631579 7:0.13157895 8:0.02631579 9:0.02631579 11:0.02631579 12:0.078947365 25:0.02631579 87:0.02631579 93:0.02631579 124:0.02631579 156:0.02631579 157:0.02631579 187:0.02631579 239:0.02631579 336:0.02631579 468:0.02631579 469:0.02631579 600:0.02631579 1918:0.02631579 3308:0.02631579 3438:0.02631579 5566:0.02631579 5907:0.02631579 6045:0.02631579 6180:0.02631579 6583:0.02631579 15171:0.02631579 20748:0.052631579 28720:0.02631579 28721:0.02631579 28722:0.02631579 #
-10.36040810231927800089124502847 1:0.014925373 2:0.014925373 3:0.014925373 7:0.10447761 12:0.029850746 14:0.059701491 29:0.044776119 36:0.029850746 45:0.014925373 48:0.029850746 69:0.014925373 77:0.014925373 129:0.014925373 130:0.014925373 144:0.014925373 178:0.014925373 187:0.014925373 214:0.044776119 237:0.014925373 239:0.029850746 288:0.014925373 337:0.029850746 356:0.014925373 621:0.014925373 710:0.014925373 731:0.014925373 760:0.014925373 788:0.014925373 815:0.014925373 816:0.014925373 971:0.014925373 1086:0.014925373 1127:0.014925373 1297:0.014925373 1760:0.014925373 1927:0.014925373 2782:0.014925373 3020:0.014925373 3298:0.029850746 4044:0.014925373 4294:0.014925373 5354:0.014925373 6588:0.014925373 7049:0.014925373 7699:0.014925373 8532:0.014925373 10353:0.014925373 43584:0.014925373 #
0.075683192717395542103986372239888 1:0.041666668 3:0.041666668 4:0.083333336 14:0.041666668 29:0.041666668 36:0.041666668 48:0.041666668 74:0.041666668 130:0.041666668 343:0.041666668 356:0.041666668 512:0.041666668 605:0.041666668 690:0.041666668 809:0.041666668 948:0.041666668 1036:0.041666668 1748:0.041666668 2939:0.041666668 3564:0.041666668 4042:0.041666668 7423:0.041666668 7723:0.041666668 #
0.30884119101747842250915709882975 1:0.028846154 2:0.03846154 3:0.009615385 7:0.009615385 8:0.009615385 9:0.009615385 12:0.01923077 14:0.048076924 18:0.009615385 29:0.009615385 36:0.028846154 46:0.028846154 48:0.01923077 57:0.009615385 66:0.009615385 99:0.009615385 103:0.028846154 137:0.01923077 144:0.009615385 210:0.009615385 218:0.01923077 224:0.009615385 237:0.009615385 260:0.009615385 274:0.009615385 285:0.009615385 289:0.009615385 294:0.009615385 305:0.01923077 310:0.009615385 434:0.009615385 468:0.009615385 471:0.009615385 512:0.009615385 518:0.009615385 593:0.009615385 609:0.009615385 623:0.009615385 626:0.009615385 788:0.009615385 978:0.009615385 1063:0.009615385 1112:0.009615385 1120:0.009615385 1285:0.009615385 1345:0.009615385 1433:0.009615385 1500:0.009615385 1539:0.009615385 1598:0.009615385 1910:0.009615385 2108:0.009615385 2357:0.009615385 2433:0.009615385 3092:0.009615385 3138:0.009615385 3621:0.009615385 3719:0.009615385 4158:0.009615385 5536:0.009615385 5555:0.009615385 5696:0.009615385 6148:0.009615385 6254:0.009615385 6264:0.009615385 6569:0.009615385 6932:0.009615385 7990:0.009615385 8954:0.009615385 11415:0.009615385 14731:0.009615385 15239:0.009615385 15274:0.009615385 17644:0.009615385 20305:0.009615385 25200:0.009615385 32290:0.009615385 32968:0.009615385 33350:0.009615385 33771:0.009615385 34179:0.009615385 34180:0.009615385 34181:0.009615385 34182:0.009615385 #
2.7395988367600097035392536781728 1:0.039999999 2:0.039999999 29:0.039999999 56:0.039999999 88:0.039999999 187:0.079999998 215:0.039999999 239:0.039999999 265:0.039999999 266:0.039999999 312:0.039999999 321:0.079999998 609:0.039999999 796:0.039999999 971:0.039999999 1181:0.039999999 1386:0.039999999 1563:0.039999999 1845:0.039999999 6468:0.039999999 6937:0.039999999 27510:0.039999999 27511:0.039999999 #
-10.36040810231927800089124502847 1:0.037037037 3:0.074074075 27:0.037037037 48:0.037037037 74:0.037037037 95:0.037037037 103:0.037037037 201:0.037037037 285:0.037037037 321:0.037037037 337:0.037037037 398:0.037037037 430:0.037037037 789:0.037037037 872:0.037037037 1331:0.037037037 1813:0.037037037 2122:0.037037037 2460:0.037037037 3719:0.037037037 6352:0.037037037 10119:0.037037037 11171:0.037037037 13978:0.037037037 29571:0.037037037 29747:0.037037037 #
-10.36040810231927800089124502847 3:0.064516127 4:0.032258064 20:0.032258064 29:0.032258064 35:0.064516127 36:0.032258064 46:0.032258064 63:0.032258064 70:0.032258064 87:0.032258064 129:0.032258064 137:0.032258064 208:0.064516127 213:0.032258064 237:0.032258064 312:0.032258064 403:0.032258064 463:0.032258064 465:0.032258064 512:0.032258064 916:0.032258064 1413:0.032258064 2061:0.032258064 2124:0.032258064 3782:0.032258064 7757:0.032258064 44439:0.032258064 44440:0.032258064 #
-10.36040810231927800089124502847 1:0.016666668 3:0.083333336 28:0.016666668 29:0.016666668 32:0.016666668 46:0.050000001 48:0.016666668 63:0.050000001 70:0.016666668 84:0.016666668 87:0.016666668 95:0.016666668 98:0.016666668 156:0.033333335 193:0.016666668 213:0.033333335 224:0.016666668 239:0.016666668 270:0.016666668 307:0.016666668 378:0.016666668 385:0.016666668 403:0.016666668 452:0.016666668 541:0.016666668 553:0.016666668 581:0.016666668 925:0.016666668 1213:0.016666668 1383:0.016666668 1737:0.016666668 1966:0.033333335 1991:0.016666668 2250:0.016666668 6408:0.016666668 6597:0.033333335 7807:0.033333335 9725:0.016666668 10542:0.016666668 21909:0.016666668 25317:0.016666668 31815:0.016666668 31816:0.016666668 31817:0.016666668 31818:0.016666668 31819:0.016666668 31820:0.016666668 #
6.2506685632391736362478695809841 7:0.089285716 14:0.017857144 18:0.035714287 25:0.017857144 29:0.035714287 36:0.017857144 46:0.017857144 48:0.017857144 73:0.017857144 88:0.017857144 180:0.017857144 183:0.017857144 193:0.017857144 221:0.017857144 226:0.017857144 239:0.017857144 258:0.017857144 265:0.017857144 266:0.017857144 285:0.053571429 360:0.017857144 392:0.017857144 414:0.017857144 509:0.017857144 512:0.053571429 519:0.017857144 544:0.017857144 587:0.017857144 604:0.017857144 844:0.017857144 967:0.017857144 1516:0.017857144 1715:0.017857144 2080:0.017857144 2433:0.017857144 4209:0.017857144 13316:0.017857144 20443:0.017857144 20456:0.017857144 20457:0.035714287 20458:0.035714287 20459:0.017857144 20460:0.017857144 20461:0.017857144 #
2.406000321254623486311174929142 7:0.06666667 12:0.044444446 18:0.022222223 27:0.022222223 29:0.022222223 36:0.022222223 46:0.044444446 48:0.022222223 57:0.022222223 63:0.022222223 68:0.022222223 87:0.022222223 144:0.022222223 163:0.022222223 187:0.022222223 208:0.022222223 210:0.022222223 213:0.044444446 239:0.06666667 260:0.022222223 267:0.022222223 595:0.022222223 600:0.022222223 721:0.022222223 1210:0.022222223 1539:0.022222223 1784:0.022222223 2371:0.022222223 2549:0.022222223 3674:0.022222223 7461:0.022222223 8954:0.022222223 11878:0.022222223 11895:0.022222223 11896:0.022222223 11897:0.022222223 11898:0.022222223 11899:0.022222223 #
-10.36040810231927800089124502847 7:0.085714288 14:0.085714288 18:0.028571429 29:0.085714288 36:0.028571429 57:0.028571429 77:0.057142857 88:0.028571429 103:0.028571429 165:0.028571429 302:0.028571429 384:0.057142857 398:0.028571429 439:0.028571429 509:0.057142857 512:0.028571429 532:0.028571429 605:0.057142857 1002:0.028571429 1191:0.028571429 3926:0.028571429 4038:0.028571429 4803:0.028571429 9992:0.028571429 11125:0.028571429 #
-10.36040810231927800089124502847 7:0.13636364 17:0.045454547 18:0.045454547 29:0.045454547 36:0.045454547 48:0.045454547 69:0.045454547 123:0.045454547 142:0.045454547 168:0.045454547 185:0.045454547 187:0.045454547 321:0.045454547 414:0.045454547 439:0.045454547 505:0.045454547 1060:0.045454547 1194:0.045454547 3827:0.045454547 13234:0.045454547 #
-10.36040810231927800089124502847 2:0.023255814 4:0.023255814 7:0.069767445 14:0.069767445 77:0.023255814 103:0.023255814 174:0.023255814 208:0.023255814 218:0.023255814 278:0.023255814 285:0.046511628 289:0.023255814 385:0.023255814 512:0.023255814 626:0.023255814 784:0.069767445 826:0.023255814 1582:0.023255814 1877:0.023255814 2360:0.023255814 2546:0.023255814 3827:0.023255814 6309:0.023255814 6381:0.046511628 6667:0.023255814 20269:0.023255814 27257:0.023255814 43509:0.023255814 46394:0.023255814 46395:0.023255814 46396:0.023255814 46397:0.023255814 46398:0.023255814 46399:0.023255814 46400:0.023255814 #
0.12786189284922677700251369969919 2:0.047619049 3:0.095238097 14:0.047619049 27:0.047619049 28:0.047619049 35:0.047619049 46:0.047619049 48:0.047619049 118:0.047619049 156:0.047619049 185:0.047619049 266:0.095238097 267:0.047619049 1227:0.047619049 2174:0.047619049 4638:0.047619049 5218:0.047619049 21621:0.047619049 32350:0.047619049 #
2.4234650605567082948255119845271 3:0.15789473 29:0.052631579 48:0.10526316 88:0.052631579 95:0.052631579 156:0.052631579 214:0.052631579 487:0.052631579 509:0.052631579 824:0.052631579 988:0.052631579 1073:0.052631579 1803:0.052631579 1823:0.052631579 8038:0.052631579 23943:0.052631579 #
5.9167080632555553165730088949203 2:0.012195121 3:0.012195121 7:0.048780486 12:0.024390243 14:0.012195121 29:0.048780486 36:0.012195121 45:0.012195121 46:0.012195121 57:0.012195121 66:0.012195121 77:0.012195121 84:0.012195121 113:0.012195121 144:0.012195121 176:0.012195121 185:0.012195121 187:0.012195121 193:0.012195121 239:0.012195121 243:0.024390243 273:0.024390243 274:0.024390243 289:0.024390243 291:0.012195121 292:0.012195121 294:0.024390243 323:0.012195121 328:0.012195121 339:0.012195121 388:0.012195121 398:0.012195121 427:0.012195121 429:0.024390243 439:0.012195121 509:0.024390243 512:0.036585364 523:0.012195121 532:0.012195121 533:0.012195121 542:0.012195121 567:0.012195121 593:0.012195121 672:0.012195121 914:0.012195121 948:0.012195121 967:0.012195121 1016:0.012195121 1763:0.012195121 1904:0.012195121 2622:0.012195121 2705:0.012195121 3254:0.012195121 3670:0.012195121 4214:0.012195121 6832:0.012195121 7433:0.012195121 9348:0.012195121 9559:0.012195121 10980:0.012195121 11270:0.012195121 15779:0.012195121 15849:0.012195121 18770:0.012195121 24023:0.012195121 24024:0.012195121 #
-10.36040810231927800089124502847 1:0.020833334 2:0.083333336 3:0.0625 14:0.020833334 26:0.020833334 36:0.020833334 46:0.041666668 57:0.041666668 68:0.020833334 87:0.041666668 118:0.020833334 144:0.0625 163:0.020833334 239:0.020833334 309:0.020833334 311:0.020833334 321:0.020833334 368:0.020833334 427:0.020833334 464:0.041666668 542:0.041666668 595:0.020833334 1080:0.020833334 1438:0.020833334 1582:0.020833334 1956:0.020833334 2334:0.020833334 2360:0.020833334 3013:0.041666668 5534:0.020833334 5564:0.020833334 10822:0.020833334 10823:0.020833334 10824:0.020833334 10825:0.020833334 #
-10.36040810231927800089124502847 3:0.090909094 124:0.090909094 142:0.090909094 239:0.090909094 1210:0.090909094 3819:0.090909094 4244:0.090909094 6947:0.090909094 19118:0.090909094 21858:0.090909094 48101:0.090909094 #
-10.36040810231927800089124502847 2:0.039999999 3:0.039999999 7:0.039999999 26:0.039999999 66:0.039999999 144:0.039999999 156:0.039999999 191:0.039999999 285:0.039999999 308:0.039999999 341:0.039999999 465:0.039999999 751:0.039999999 776:0.039999999 880:0.039999999 891:0.039999999 1331:0.039999999 1470:0.039999999 2097:0.039999999 7049:0.039999999 7930:0.039999999 33612:0.079999998 37815:0.039999999 37816:0.039999999 #
3.4784876293727648999265511520207 1:0.020408163 3:0.020408163 7:0.040816326 12:0.020408163 20:0.020408163 29:0.06122449 48:0.020408163 57:0.06122449 87:0.020408163 88:0.020408163 144:0.020408163 174:0.020408163 213:0.020408163 218:0.06122449 229:0.020408163 239:0.020408163 267:0.020408163 310:0.020408163 386:0.020408163 432:0.020408163 450:0.020408163 453:0.020408163 487:0.020408163 512:0.020408163 605:0.040816326 784:0.020408163 924:0.020408163 1015:0.020408163 1063:0.020408163 1250:0.020408163 2446:0.020408163 2672:0.020408163 3719:0.020408163 6441:0.040816326 11057:0.020408163 13573:0.020408163 13609:0.020408163 20670:0.020408163 24465:0.020408163 44020:0.020408163 #
4.8557694145590346579410834237933 1:0.045454547 7:0.090909094 12:0.045454547 14:0.045454547 29:0.045454547 35:0.045454547 73:0.045454547 103:0.045454547 144:0.045454547 168:0.045454547 235:0.045454547 242:0.045454547 267:0.045454547 432:0.045454547 605:0.045454547 707:0.045454547 1176:0.045454547 2174:0.045454547 2622:0.045454547 8532:0.045454547 17442:0.045454547 #
1.1715938790934821156497491756454 7:0.1 14:0.050000001 15:0.050000001 18:0.050000001 29:0.050000001 36:0.050000001 46:0.050000001 57:0.050000001 77:0.050000001 103:0.050000001 242:0.050000001 465:0.050000001 469:0.050000001 544:0.050000001 978:0.050000001 1109:0.050000001 3539:0.050000001 4330:0.050000001 5896:0.050000001 #
-10.36040810231927800089124502847 1:0.024390243 3:0.024390243 6:0.024390243 7:0.073170729 12:0.073170729 14:0.024390243 20:0.024390243 29:0.024390243 46:0.024390243 87:0.024390243 88:0.073170729 122:0.024390243 130:0.024390243 144:0.024390243 187:0.024390243 241:0.048780486 242:0.048780486 359:0.024390243 469:0.024390243 542:0.024390243 705:0.024390243 910:0.024390243 967:0.024390243 1752:0.024390243 2320:0.024390243 3210:0.024390243 3634:0.024390243 4547:0.024390243 4587:0.024390243 4850:0.024390243 5079:0.024390243 5263:0.024390243 7849:0.024390243 #
-10.36040810231927800089124502847 1:0.021739131 7:0.086956523 11:0.021739131 14:0.043478262 29:0.021739131 32:0.021739131 36:0.065217391 46:0.021739131 48:0.021739131 57:0.021739131 68:0.021739131 74:0.021739131 88:0.021739131 187:0.021739131 226:0.021739131 237:0.021739131 241:0.021739131 266:0.021739131 435:0.021739131 437:0.021739131 469:0.021739131 487:0.021739131 587:0.021739131 605:0.021739131 832:0.021739131 906:0.021739131 1013:0.021739131 1277:0.021739131 2349:0.021739131 2799:0.021739131 4553:0.021739131 6363:0.021739131 7930:0.021739131 10559:0.021739131 11430:0.021739131 14276:0.021739131 16204:0.021739131 16512:0.021739131 17363:0.021739131 21214:0.021739131 #
-10.36040810231927800089124502847 1:0.025641026 2:0.025641026 7:0.1025641 12:0.03846154 14:0.025641026 15:0.012820513 20:0.012820513 25:0.012820513 29:0.025641026 36:0.012820513 46:0.051282052 57:0.012820513 74:0.025641026 95:0.025641026 99:0.025641026 122:0.025641026 129:0.012820513 138:0.012820513 190:0.012820513 193:0.025641026 203:0.012820513 226:0.012820513 237:0.012820513 239:0.012820513 253:0.012820513 266:0.012820513 271:0.012820513 274:0.025641026 404:0.012820513 432:0.012820513 462:0.012820513 478:0.012820513 542:0.012820513 547:0.012820513 548:0.012820513 609:0.012820513 733:0.012820513 795:0.012820513 1140:0.012820513 1357:0.012820513 1975:0.012820513 2320:0.012820513 2611:0.025641026 3138:0.012820513 3140:0.012820513 4017:0.012820513 4380:0.012820513 4451:0.012820513 5381:0.012820513 7306:0.012820513 9993:0.012820513 15866:0.012820513 39728:0.012820513 50056:0.012820513 50057:0.012820513 #
5.2578214577657149675360415130854 3:0.029411765 4:0.014705882 12:0.014705882 14:0.029411765 18:0.014705882 26:0.014705882 29:0.014705882 30:0.014705882 35:0.014705882 36:0.014705882 46:0.014705882 57:0.029411765 68:0.014705882 103:0.029411765 144:0.014705882 176:0.014705882 180:0.014705882 193:0.014705882 216:0.014705882 230:0.014705882 239:0.014705882 253:0.014705882 285:0.014705882 288:0.014705882 308:0.014705882 437:0.029411765 454:0.014705882 475:0.014705882 509:0.014705882 512:0.014705882 514:0.014705882 542:0.014705882 605:0.014705882 710:0.014705882 768:0.014705882 796:0.014705882 926:0.029411765 1076:0.014705882 1159:0.014705882 1175:0.014705882 1239:0.014705882 1328:0.014705882 1382:0.014705882 1649:0.014705882 1795:0.014705882 1958:0.014705882 2990:0.014705882 3307:0.014705882 3818:0.029411765 4193:0.014705882 4646:0.014705882 4776:0.014705882 4964:0.014705882 6974:0.014705882 9277:0.014705882 10903:0.029411765 11080:0.014705882 20873:0.014705882 20874:0.014705882 20875:0.014705882 #
1.1882336909809225744538707658648 1:0.043478262 2:0.17391305 12:0.086956523 14:0.043478262 18:0.043478262 84:0.043478262 187:0.043478262 378:0.043478262 539:0.043478262 1081:0.043478262 1421:0.043478262 1779:0.043478262 2218:0.043478262 3944:0.043478262 5465:0.043478262 5690:0.043478262 7934:0.043478262 9046:0.043478262 11153:0.043478262 #
10.36040810231927800089124502847 1:0.019607844 2:0.0039215689 3:0.027450981 7:0.043137256 8:0.0078431377 11:0.0039215689 12:0.015686275 14:0.027450981 17:0.0039215689 18:0.019607844 20:0.0039215689 25:0.0078431377 26:0.0039215689 29:0.031372551 35:0.0039215689 36:0.011764706 46:0.015686275 48:0.011764706 57:0.0039215689 63:0.0039215689 73:0.0078431377 74:0.011764706 87:0.015686275 95:0.0039215689 98:0.0039215689 99:0.0039215689 129:0.0039215689 137:0.0039215689 144:0.011764706 149:0.0039215689 156:0.0039215689 163:0.0039215689 178:0.0039215689 190:0.0039215689 193:0.011764706 206:0.0078431377 208:0.0039215689 209:0.0039215689 210:0.0078431377 216:0.0039215689 220:0.0039215689 224:0.0039215689 230:0.0039215689 237:0.0039215689 239:0.019607844 241:0.0078431377 250:0.0039215689 253:0.0039215689 265:0.0039215689 266:0.0078431377 267:0.0039215689 271:0.0039215689 275:0.0039215689 288:0.0039215689 289:0.0039215689 305:0.0078431377 336:0.0039215689 396:0.0039215689 399:0.0039215689 429:0.0039215689 435:0.0039215689 447:0.0039215689 454:0.0039215689 478:0.0039215689 508:0.0039215689 512:0.011764706 519:0.0039215689 542:0.0039215689 544:0.0039215689 600:0.0039215689 604:0.0039215689 616:0.0039215689 622:0.0039215689 624:0.0039215689 628:0.0078431377 661:0.0039215689 691:0.0039215689 710:0.0078431377 734:0.0039215689 735:0.0078431377 752:0.0039215689 810:0.0039215689 811:0.0039215689 812:0.0078431377 905:0.0039215689 911:0.0039215689 973:0.0039215689 988:0.0039215689 1005:0.0039215689 1058:0.0039215689 1168:0.0039215689 1213:0.0078431377 1246:0.0039215689 1294:0.0039215689 1296:0.0039215689 1376:0.0039215689 1387:0.0039215689 1401:0.0078431377 1409:0.0039215689 1430:0.019607844 1592:0.0039215689 1643:0.0039215689 1776:0.0039215689 1786:0.0039215689 1815:0.0039215689 1928:0.0039215689 2154:0.0039215689 2282:0.0039215689 2431:0.0039215689 2564:0.0039215689 2584:0.0039215689 2592:0.0039215689 2680:0.0039215689 2724:0.0039215689 2840:0.0039215689 2928:0.0039215689 3003:0.0039215689 3247:0.0039215689 3361:0.0039215689 3513:0.0039215689 3732:0.0039215689 3900:0.0039215689 4232:0.0039215689 4235:0.0039215689 4572:0.0039215689 4599:0.0039215689 4737:0.0039215689 4747:0.0039215689 4985:0.0039215689 5440:0.0039215689 6221:0.0039215689 6395:0.0039215689 6915:0.0039215689 8317:0.0039215689 8421:0.0078431377 8818:0.0039215689 12565:0.0039215689 13136:0.0039215689 14027:0.0039215689 14931:0.0039215689 15663:0.0039215689 16069:0.0039215689 16865:0.0039215689 17463:0.0039215689 19157:0.0039215689 19703:0.0039215689 19930:0.0039215689 20583:0.0078431377 24133:0.0039215689 24148:0.0039215689 26792:0.0039215689 30097:0.0039215689 36554:0.0039215689 41202:0.0039215689 41203:0.0039215689 41204:0.0039215689 41205:0.0039215689 41206:0.0039215689 41207:0.0039215689 41208:0.0039215689 41209:0.0039215689 41210:0.0039215689 41211:0.0039215689 41212:0.0039215689 41213:0.0039215689 41214:0.0039215689 41215:0.0039215689 41216:0.0039215689 41217:0.0039215689 41218:0.0039215689 41219:0.0039215689 41220:0.0039215689 41221:0.0039215689 #
-10.36040810231927800089124502847 1:0.021739131 2:0.086956523 3:0.065217391 7:0.021739131 8:0.021739131 12:0.021739131 28:0.021739131 29:0.043478262 48:0.043478262 57:0.021739131 69:0.021739131 87:0.086956523 102:0.021739131 163:0.021739131 187:0.021739131 210:0.021739131 267:0.021739131 321:0.043478262 429:0.021739131 673:0.021739131 710:0.021739131 784:0.021739131 863:0.021739131 899:0.043478262 1015:0.021739131 1570:0.021739131 1776:0.021739131 1856:0.021739131 2199:0.021739131 4734:0.021739131 5170:0.021739131 20154:0.021739131 20155:0.021739131 20156:0.021739131 #
-10.36040810231927800089124502847 1:0.034482758 2:0.034482758 3:0.068965517 7:0.034482758 12:0.068965517 29:0.068965517 48:0.068965517 51:0.034482758 93:0.034482758 187:0.068965517 224:0.034482758 824:0.034482758 901:0.034482758 1014:0.068965517 3393:0.034482758 5591:0.034482758 5621:0.034482758 5910:0.034482758 6103:0.034482758 8742:0.034482758 18547:0.034482758 18548:0.034482758 18549:0.034482758 #
-10.36040810231927800089124502847 1:0.02247191 2:0.033707865 3:0.033707865 7:0.033707865 9:0.011235955 11:0.011235955 12:0.044943821 13:0.011235955 14:0.033707865 18:0.02247191 29:0.011235955 32:0.033707865 36:0.011235955 46:0.011235955 48:0.033707865 87:0.011235955 98:0.011235955 99:0.011235955 103:0.011235955 116:0.02247191 119:0.011235955 137:0.011235955 142:0.011235955 161:0.011235955 187:0.011235955 193:0.011235955 208:0.011235955 210:0.011235955 216:0.011235955 265:0.011235955 266:0.011235955 274:0.02247191 275:0.011235955 282:0.011235955 285:0.011235955 294:0.011235955 347:0.011235955 427:0.011235955 436:0.011235955 459:0.011235955 465:0.011235955 514:0.011235955 542:0.011235955 624:0.011235955 656:0.011235955 824:0.011235955 872:0.011235955 975:0.011235955 1016:0.011235955 1328:0.011235955 1407:0.011235955 1416:0.011235955 1815:0.011235955 1945:0.011235955 1985:0.011235955 2840:0.02247191 2864:0.011235955 3283:0.011235955 3464:0.011235955 4452:0.02247191 4453:0.02247191 5001:0.011235955 9973:0.011235955 11268:0.011235955 13025:0.011235955 27340:0.011235955 32915:0.011235955 #
4.4860943765765739499329356476665 1:0.015384615 3:0.015384615 7:0.061538462 12:0.015384615 14:0.061538462 21:0.015384615 26:0.015384615 29:0.030769231 46:0.030769231 54:0.015384615 55:0.015384615 66:0.015384615 67:0.015384615 74:0.015384615 85:0.030769231 87:0.015384615 107:0.015384615 137:0.015384615 155:0.015384615 156:0.015384615 200:0.015384615 210:0.015384615 216:0.030769231 224:0.015384615 237:0.015384615 239:0.015384615 243:0.015384615 267:0.015384615 308:0.015384615 341:0.015384615 403:0.015384615 414:0.015384615 429:0.015384615 554:0.030769231 581:0.015384615 784:0.015384615 851:0.015384615 879:0.015384615 949:0.015384615 984:0.015384615 999:0.015384615 1359:0.015384615 1512:0.015384615 1700:0.015384615 1978:0.015384615 2932:0.015384615 4014:0.015384615 4499:0.015384615 7594:0.030769231 7607:0.030769231 7764:0.015384615 35038:0.015384615 #
1.3956636930939794183359481394291 7:0.043478262 12:0.043478262 17:0.043478262 20:0.043478262 46:0.043478262 57:0.043478262 74:0.043478262 207:0.043478262 239:0.043478262 285:0.043478262 337:0.043478262 417:0.043478262 428:0.043478262 509:0.043478262 595:0.043478262 784:0.043478262 1449:0.043478262 2942:0.043478262 3827:0.043478262 4038:0.043478262 11652:0.043478262 24290:0.043478262 24291:0.043478262 #
1.7666524857421848082594806328416 3:0.039999999 7:0.079999998 26:0.039999999 36:0.039999999 46:0.039999999 69:0.039999999 74:0.039999999 144:0.039999999 289:0.039999999 336:0.039999999 375:0.039999999 398:0.039999999 542:0.039999999 617:0.039999999 649:0.039999999 851:0.039999999 869:0.039999999 948:0.039999999 1098:0.039999999 1558:0.039999999 2018:0.039999999 4350:0.039999999 7135:0.039999999 30881:0.039999999 #
-10.36040810231927800089124502847 2:0.047619049 7:0.095238097 18:0.047619049 25:0.047619049 46:0.095238097 74:0.047619049 102:0.047619049 178:0.047619049 224:0.047619049 310:0.047619049 542:0.047619049 605:0.047619049 617:0.047619049 675:0.047619049 961:0.047619049 1250:0.047619049 2360:0.047619049 3011:0.047619049 9351:0.047619049 #
-10.36040810231927800089124502847 3:0.014925373 4:0.014925373 7:0.059701491 12:0.014925373 14:0.059701491 30:0.014925373 35:0.014925373 36:0.014925373 46:0.029850746 48:0.014925373 77:0.014925373 118:0.014925373 127:0.014925373 144:0.029850746 152:0.014925373 180:0.014925373 239:0.029850746 285:0.014925373 291:0.014925373 308:0.014925373 310:0.014925373 362:0.014925373 428:0.014925373 454:0.014925373 509:0.014925373 512:0.014925373 540:0.014925373 640:0.014925373 784:0.029850746 788:0.014925373 932:0.014925373 971:0.014925373 1254:0.014925373 1335:0.014925373 1592:0.014925373 2759:0.014925373 3636:0.014925373 3725:0.014925373 3752:0.014925373 3817:0.014925373 3979:0.014925373 4294:0.014925373 5098:0.014925373 7100:0.014925373 9616:0.014925373 9739:0.014925373 11208:0.014925373 11235:0.014925373 11633:0.014925373 13042:0.014925373 13400:0.014925373 14235:0.014925373 16947:0.014925373 18837:0.014925373 20496:0.014925373 20574:0.014925373 20575:0.014925373 #
-10.36040810231927800089124502847 1:0.0045662099 2:0.0045662099 3:0.02739726 7:0.031963471 12:0.0045662099 14:0.045662101 18:0.0045662099 25:0.0091324197 26:0.0091324197 28:0.0045662099 29:0.0045662099 32:0.0091324197 36:0.02739726 46:0.02739726 48:0.018264839 60:0.0045662099 63:0.02739726 66:0.0045662099 77:0.018264839 87:0.01369863 95:0.01369863 103:0.01369863 104:0.0045662099 137:0.0091324197 138:0.0045662099 156:0.01369863 176:0.0045662099 180:0.01369863 185:0.0045662099 193:0.0091324197 210:0.0045662099 213:0.0045662099 235:0.0091324197 237:0.0045662099 267:0.0091324197 274:0.0045662099 285:0.031963471 294:0.0045662099 305:0.0091324197 308:0.0045662099 337:0.0045662099 360:0.0045662099 376:0.0045662099 388:0.0045662099 400:0.01369863 403:0.01369863 432:0.0045662099 435:0.0045662099 437:0.0045662099 509:0.02739726 512:0.036529679 519:0.0091324197 532:0.0045662099 542:0.0045662099 605:0.0045662099 751:0.0091324197 790:0.01369863 811:0.0045662099 971:0.0045662099 978:0.0045662099 1003:0.0045662099 1013:0.0045662099 1015:0.0045662099 1020:0.0045662099 1063:0.0045662099 1076:0.0045662099 1239:0.018264839 1268:0.0045662099 1296:0.0045662099 1777:0.0045662099 1780:0.018264839 1826:0.0045662099 1839:0.0045662099 2118:0.0091324197 2282:0.0091324197 2455:0.0045662099 2518:0.0045662099 2601:0.0045662099 2741:0.0045662099 2865:0.0045662099 2990:0.0091324197 3116:0.01369863 3257:0.0045662099 3708:0.0045662099 3818:0.0045662099 3819:0.0045662099 3827:0.031963471 4038:0.0045662099 4193:0.0091324197 4230:0.0045662099 4798:0.0045662099 4908:0.0045662099 5438:0.0045662099 5727:0.0045662099 6169:0.0045662099 6543:0.0045662099 6807:0.0045662099 8745:0.0045662099 8985:0.0045662099 10181:0.0045662099 10203:0.0045662099 10542:0.0045662099 10953:0.0045662099 11074:0.0045662099 12193:0.0045662099 16218:0.0045662099 16285:0.0045662099 20833:0.0045662099 20834:0.0045662099 20835:0.0091324197 20836:0.0045662099 20837:0.0045662099 20838:0.0045662099 20839:0.0045662099 20840:0.0045662099 #
7.7211308143068748677251278422773 1:0.035714287 2:0.035714287 3:0.035714287 12:0.071428575 25:0.035714287 29:0.035714287 48:0.035714287 57:0.035714287 87:0.035714287 88:0.035714287 138:0.035714287 187:0.035714287 208:0.035714287 226:0.035714287 281:0.035714287 399:0.035714287 408:0.035714287 432:0.071428575 542:0.035714287 784:0.035714287 978:0.035714287 1436:0.035714287 5855:0.035714287 7291:0.035714287 8814:0.035714287 31541:0.035714287 #
0.32814179916385910473763942718506 1:0.014218009 2:0.023696683 3:0.037914693 4:0.0047393367 7:0.037914693 9:0.0047393367 12:0.023696683 14:0.028436018 18:0.018957347 26:0.0047393367 28:0.0047393367 29:0.018957347 30:0.0094786733 32:0.0047393367 36:0.033175357 46:0.023696683 63:0.023696683 67:0.0047393367 68:0.0047393367 74:0.018957347 77:0.0094786733 83:0.0047393367 87:0.0047393367 88:0.0094786733 95:0.0094786733 102:0.0047393367 129:0.0047393367 138:0.0047393367 144:0.0094786733 163:0.014218009 185:0.0047393367 187:0.0094786733 193:0.014218009 200:0.0047393367 201:0.0047393367 208:0.0047393367 219:0.0094786733 223:0.0047393367 224:0.0047393367 225:0.0047393367 237:0.0047393367 239:0.0047393367 265:0.0094786733 267:0.0047393367 285:0.014218009 288:0.0047393367 289:0.0094786733 294:0.014218009 321:0.0047393367 385:0.0047393367 403:0.0047393367 428:0.0047393367 434:0.0094786733 435:0.0047393367 454:0.0047393367 485:0.0047393367 496:0.014218009 509:0.0047393367 512:0.014218009 514:0.0047393367 609:0.0047393367 640:0.0047393367 692:0.0094786733 710:0.0047393367 754:0.0047393367 784:0.0047393367 802:0.0047393367 810:0.0047393367 824:0.0047393367 848:0.0094786733 860:0.0047393367 863:0.0047393367 882:0.0047393367 901:0.0047393367 907:0.0047393367 914:0.0094786733 932:0.0047393367 944:0.0047393367 954:0.0047393367 1052:0.0047393367 1062:0.0047393367 1119:0.0047393367 1132:0.0047393367 1191:0.0047393367 1213:0.0047393367 1223:0.0047393367 1430:0.0047393367 1504:0.0047393367 1536:0.0047393367 1575:0.0047393367 1580:0.0047393367 1768:0.0047393367 1817:0.0047393367 1820:0.0047393367 1826:0.0047393367 1847:0.0047393367 2111:0.0047393367 2119:0.0047393367 2214:0.0047393367 2409:0.0047393367 2939:0.0047393367 3013:0.0047393367 3446:0.0047393367 3557:0.0047393367 3719:0.0047393367 3747:0.0094786733 3817:0.0047393367 3819:0.0047393367 4040:0.0047393367 4299:0.0047393367 5564:0.0094786733 5621:0.0047393367 5786:0.0047393367 7269:0.0047393367 7499:0.0047393367 8654:0.0047393367 9300:0.0047393367 10455:0.0047393367 13314:0.0047393367 15433:0.0047393367 16907:0.0047393367 17210:0.0047393367 21316:0.0047393367 27046:0.0047393367 34498:0.0047393367 38227:0.0047393367 39439:0.0047393367 39440:0.0047393367 39441:0.0047393367 39442:0.0047393367 39443:0.0047393367 39444:0.0047393367 #
1.3409275945866738766198977828026 1:0.0029411765 2:0.0088235298 3:0.01764706 5:0.0058823531 7:0.047058824 9:0.0029411765 11:0.0029411765 12:0.0029411765 14:0.014705882 17:0.0058823531 18:0.011764706 23:0.0029411765 25:0.0088235298 27:0.0058823531 28:0.0058823531 29:0.044117648 30:0.0029411765 32:0.0029411765 35:0.0058823531 36:0.020588236 42:0.0029411765 46:0.023529412 48:0.0088235298 57:0.014705882 63:0.011764706 68:0.0029411765 70:0.0029411765 72:0.0058823531 74:0.0029411765 77:0.0029411765 87:0.011764706 88:0.0058823531 95:0.0088235298 99:0.0029411765 103:0.0088235298 119:0.0029411765 129:0.0058823531 144:0.01764706 156:0.011764706 178:0.0058823531 180:0.0058823531 181:0.0029411765 182:0.0029411765 185:0.011764706 187:0.014705882 193:0.0058823531 200:0.0029411765 208:0.0029411765 210:0.0029411765 216:0.0029411765 233:0.0029411765 237:0.0058823531 239:0.0088235298 241:0.0029411765 260:0.0029411765 262:0.0029411765 266:0.0029411765 268:0.0029411765 285:0.0029411765 289:0.011764706 291:0.0058823531 305:0.0058823531 310:0.0029411765 311:0.0029411765 337:0.0029411765 344:0.0029411765 353:0.0029411765 355:0.0058823531 376:0.0029411765 394:0.0058823531 399:0.0029411765 400:0.0058823531 401:0.0029411765 404:0.0058823531 408:0.0029411765 428:0.0029411765 429:0.0029411765 435:0.0029411765 437:0.0029411765 475:0.0029411765 478:0.0029411765 495:0.0029411765 509:0.0058823531 512:0.0029411765 532:0.0058823531 542:0.0058823531 556:0.0058823531 562:0.0029411765 564:0.0029411765 593:0.0029411765 605:0.0058823531 609:0.0029411765 619:0.0029411765 634:0.0029411765 675:0.0029411765 751:0.0029411765 776:0.0058823531 784:0.0058823531 788:0.0029411765 790:0.0029411765 810:0.0029411765 896:0.0029411765 967:0.0029411765 971:0.0029411765 973:0.0029411765 1033:0.0029411765 1052:0.0029411765 1134:0.0029411765 1140:0.0029411765 1210:0.0029411765 1213:0.0029411765 1239:0.0058823531 1242:0.0029411765 1321:0.0029411765 1454:0.0058823531 1519:0.0029411765 1557:0.0029411765 1570:0.0029411765 1676:0.0088235298 1800:0.0029411765 1996:0.0058823531 1999:0.0029411765 2250:0.0029411765 2270:0.0029411765 2301:0.0029411765 2598:0.0029411765 2609:0.0058823531 2611:0.0088235298 2974:0.0029411765 3059:0.0029411765 3100:0.0029411765 3181:0.0029411765 3381:0.0029411765 3516:0.0029411765 3557:0.0058823531 3674:0.0029411765 3733:0.0029411765 3817:0.0029411765 3893:0.0058823531 3935:0.0058823531 4084:0.0029411765 4090:0.0029411765 4091:0.0029411765 4209:0.0029411765 4418:0.0029411765 4687:0.0029411765 4707:0.0029411765 5195:0.0029411765 5796:0.0029411765 6059:0.0029411765 6067:0.0058823531 6249:0.0029411765 6402:0.0029411765 6860:0.0029411765 6995:0.0029411765 7174:0.0029411765 7454:0.0029411765 7488:0.0029411765 7610:0.0029411765 7934:0.0029411765 8590:0.0029411765 9165:0.0029411765 9225:0.0029411765 9456:0.0029411765 10095:0.01764706 10571:0.0029411765 10652:0.0029411765 10899:0.0029411765 13081:0.0029411765 13175:0.0029411765 13625:0.0029411765 14687:0.0029411765 15251:0.0029411765 15380:0.0029411765 16625:0.0029411765 17576:0.0029411765 18654:0.0029411765 18891:0.0029411765 18932:0.0029411765 19877:0.0029411765 21631:0.0029411765 26255:0.0029411765 27195:0.0029411765 32090:0.0029411765 32918:0.0029411765 34106:0.0029411765 35593:0.0029411765 39510:0.0029411765 39511:0.0029411765 39512:0.0029411765 39513:0.0029411765 39514:0.0029411765 39515:0.0029411765 39516:0.0029411765 39517:0.0029411765 39518:0.0029411765 39519:0.0029411765 39520:0.0029411765 39521:0.0029411765 39522:0.0029411765 39523:0.0029411765 39524:0.0029411765 39525:0.0029411765 39526:0.0029411765 #
-10.36040810231927800089124502847 1:0.014925373 2:0.014925373 3:0.014925373 7:0.029850746 9:0.014925373 11:0.014925373 12:0.074626863 14:0.014925373 15:0.014925373 25:0.014925373 27:0.014925373 29:0.059701491 33:0.014925373 35:0.029850746 46:0.029850746 67:0.014925373 68:0.014925373 95:0.014925373 137:0.014925373 144:0.014925373 184:0.014925373 187:0.029850746 191:0.014925373 193:0.014925373 212:0.014925373 239:0.014925373 289:0.014925373 294:0.014925373 378:0.029850746 463:0.014925373 485:0.014925373 523:0.014925373 542:0.014925373 544:0.014925373 567:0.014925373 587:0.014925373 652:0.014925373 691:0.014925373 788:0.014925373 815:0.014925373 1095:0.014925373 1140:0.014925373 1160:0.014925373 1888:0.014925373 1904:0.014925373 2622:0.014925373 2676:0.014925373 2824:0.029850746 4180:0.014925373 4597:0.014925373 6277:0.014925373 10920:0.014925373 39042:0.014925373 39043:0.014925373 #
-10.36040810231927800089124502847 1:0.03125 3:0.03125 12:0.0625 14:0.03125 29:0.03125 57:0.03125 88:0.03125 95:0.0625 130:0.03125 156:0.03125 190:0.03125 193:0.03125 230:0.03125 239:0.03125 250:0.03125 266:0.03125 267:0.03125 271:0.03125 278:0.03125 353:0.03125 1002:0.03125 1075:0.03125 1268:0.03125 1410:0.03125 1920:0.03125 3270:0.03125 9619:0.03125 16887:0.03125 23684:0.03125 26301:0.03125 #
-10.36040810231927800089124502847 1:0.019607844 2:0.019607844 3:0.05882353 7:0.039215688 12:0.078431375 18:0.019607844 20:0.039215688 29:0.039215688 46:0.019607844 48:0.039215688 67:0.019607844 74:0.019607844 87:0.019607844 118:0.019607844 187:0.019607844 200:0.019607844 210:0.019607844 224:0.019607844 245:0.019607844 275:0.019607844 321:0.019607844 403:0.019607844 456:0.019607844 478:0.019607844 498:0.019607844 515:0.019607844 609:0.019607844 619:0.019607844 633:0.019607844 666:0.019607844 1036:0.019607844 1104:0.019607844 1856:0.019607844 2922:0.019607844 3125:0.019607844 3667:0.019607844 5081:0.019607844 7466:0.019607844 9725:0.019607844 9734:0.019607844 38131:0.019607844 38132:0.019607844 #
10.36040810231927800089124502847 1:0.03930131 2:0.013100437 3:0.034934498 7:0.048034936 11:0.0043668123 12:0.0087336246 14:0.017467249 18:0.013100437 20:0.0043668123 25:0.0043668123 29:0.021834061 32:0.0043668123 35:0.017467249 36:0.013100437 46:0.013100437 48:0.0043668123 54:0.021834061 55:0.0087336246 63:0.030567685 66:0.0043668123 68:0.0087336246 74:0.0043668123 87:0.017467249 88:0.0043668123 95:0.0043668123 111:0.0043668123 112:0.013100437 116:0.0043668123 137:0.0043668123 143:0.0043668123 144:0.0043668123 156:0.0043668123 167:0.0043668123 176:0.0043668123 187:0.0043668123 193:0.0087336246 201:0.0043668123 208:0.0087336246 210:0.0043668123 226:0.0043668123 227:0.0043668123 230:0.0043668123 231:0.0043668123 237:0.0043668123 239:0.013100437 250:0.0043668123 285:0.0087336246 288:0.0043668123 289:0.0087336246 299:0.0043668123 310:0.0087336246 311:0.0043668123 323:0.0087336246 339:0.0043668123 359:0.0043668123 376:0.0043668123 385:0.0043668123 398:0.0043668123 403:0.0087336246 404:0.0043668123 427:0.0043668123 429:0.0043668123 435:0.0087336246 454:0.0087336246 532:0.0043668123 533:0.0043668123 542:0.0043668123 556:0.0043668123 581:0.0043668123 600:0.0043668123 633:0.0043668123 672:0.0043668123 691:0.0043668123 692:0.0043668123 695:0.0043668123 699:0.0043668123 850:0.0043668123 851:0.0043668123 872:0.0043668123 894:0.013100437 896:0.0043668123 910:0.0043668123 948:0.0043668123 1043:0.0043668123 1063:0.0043668123 1075:0.0043668123 1159:0.0043668123 1168:0.0043668123 1194:0.0043668123 1210:0.0043668123 1211:0.0043668123 1215:0.0043668123 1223:0.0043668123 1242:0.0043668123 1355:0.0043668123 1373:0.0087336246 1473:0.0043668123 1500:0.0043668123 1546:0.0043668123 1694:0.0043668123 1726:0.0043668123 1800:0.0087336246 2130:0.0043668123 2154:0.0087336246 2253:0.0043668123 2464:0.0043668123 2564:0.0043668123 2687:0.0043668123 3030:0.0043668123 3173:0.0043668123 3291:0.0043668123 3390:0.0043668123 3441:0.0043668123 3476:0.0043668123 3575:0.0043668123 3663:0.0043668123 3733:0.0043668123 3753:0.0043668123 4019:0.0043668123 4160:0.0043668123 4371:0.0043668123 4421:0.0043668123 4520:0.0043668123 4589:0.0043668123 4861:0.0043668123 5200:0.0087336246 5452:0.0043668123 7414:0.0043668123 7594:0.013100437 7618:0.0043668123 7720:0.0043668123 7721:0.0043668123 7722:0.0043668123 7723:0.0043668123 7724:0.0043668123 7725:0.0043668123 7726:0.0043668123 7727:0.0043668123 7728:0.0043668123 7729:0.0043668123 7730:0.0043668123 7731:0.0043668123 7732:0.0043668123 7733:0.0043668123 7734:0.0043668123 7735:0.0043668123 7736:0.0043668123 7737:0.0043668123 7738:0.0043668123 #
7.3495951145069540189069812186062 7:0.043478262 14:0.043478262 17:0.043478262 29:0.043478262 46:0.043478262 77:0.043478262 87:0.043478262 142:0.043478262 144:0.043478262 285:0.043478262 512:0.13043478 621:0.043478262 810:0.043478262 1015:0.043478262 1407:0.043478262 2250:0.043478262 3498:0.043478262 3499:0.043478262 3500:0.043478262 3501:0.043478262 3502:0.043478262 #
3.9702008026011696983914589509368 7:0.045454547 36:0.045454547 48:0.090909094 63:0.045454547 127:0.045454547 239:0.045454547 267:0.045454547 293:0.045454547 295:0.045454547 508:0.045454547 776:0.045454547 822:0.045454547 1239:0.045454547 1296:0.045454547 1407:0.045454547 1954:0.045454547 2727:0.045454547 3827:0.045454547 4337:0.045454547 8787:0.045454547 20772:0.045454547 #
-10.36040810231927800089124502847 3:0.037500001 7:0.050000001 14:0.037500001 20:0.037500001 25:0.0125 28:0.0125 29:0.037500001 36:0.025 66:0.0125 67:0.0125 68:0.0125 87:0.0125 103:0.0125 124:0.0125 156:0.025 187:0.0125 193:0.0125 210:0.0125 237:0.037500001 239:0.0125 266:0.0125 271:0.0125 285:0.0125 293:0.0125 311:0.0125 398:0.0125 428:0.025 429:0.025 464:0.0125 470:0.0125 512:0.037500001 542:0.0125 584:0.0125 790:0.025 863:0.0125 957:0.0125 1041:0.0125 1321:0.0125 1407:0.025 1829:0.0125 1866:0.0125 2428:0.0125 3267:0.0125 4432:0.0125 4862:0.0125 5530:0.0125 6980:0.0125 12149:0.0125 13108:0.0125 14613:0.0125 16626:0.0125 20359:0.0125 20449:0.0125 20450:0.0125 20451:0.0125 20452:0.0125 20453:0.0125 20454:0.0125 20455:0.0125 #
-10.36040810231927800089124502847 3:0.043478262 4:0.043478262 7:0.043478262 13:0.043478262 35:0.043478262 48:0.086956523 63:0.043478262 68:0.043478262 70:0.043478262 87:0.043478262 103:0.043478262 187:0.043478262 201:0.086956523 210:0.043478262 378:0.043478262 464:0.043478262 512:0.043478262 788:0.043478262 967:0.043478262 1823:0.043478262 1877:0.043478262 #
-10.36040810231927800089124502847 1:0.016129032 2:0.0080645159 3:0.0080645159 4:0.0080645159 7:0.10483871 11:0.016129032 12:0.016129032 14:0.024193548 17:0.0080645159 18:0.0080645159 20:0.032258064 29:0.056451611 36:0.016129032 46:0.0080645159 48:0.016129032 69:0.0080645159 74:0.032258064 77:0.0080645159 87:0.024193548 116:0.0080645159 134:0.040322579 138:0.0080645159 144:0.016129032 178:0.0080645159 190:0.0080645159 193:0.0080645159 195:0.0080645159 201:0.0080645159 208:0.016129032 214:0.016129032 224:0.0080645159 261:0.016129032 262:0.0080645159 293:0.0080645159 355:0.0080645159 384:0.0080645159 399:0.0080645159 412:0.0080645159 425:0.0080645159 428:0.0080645159 429:0.0080645159 450:0.0080645159 470:0.0080645159 493:0.0080645159 496:0.0080645159 508:0.0080645159 512:0.0080645159 619:0.0080645159 691:0.0080645159 692:0.0080645159 775:0.0080645159 884:0.0080645159 1036:0.0080645159 1159:0.016129032 1196:0.0080645159 1210:0.016129032 1239:0.0080645159 1328:0.0080645159 1594:0.016129032 2071:0.0080645159 2131:0.0080645159 2224:0.0080645159 2275:0.0080645159 2354:0.0080645159 2361:0.0080645159 2428:0.0080645159 2429:0.0080645159 4880:0.0080645159 5411:0.0080645159 7835:0.0080645159 9500:0.0080645159 10453:0.0080645159 10558:0.0080645159 22486:0.0080645159 30136:0.0080645159 30137:0.0080645159 30138:0.0080645159 30139:0.0080645159 30140:0.0080645159 30141:0.0080645159 #
2.3065086056861900942749343812466 1:0.050000001 2:0.050000001 3:0.1 12:0.050000001 66:0.050000001 74:0.050000001 124:0.050000001 187:0.050000001 224:0.050000001 266:0.050000001 321:0.050000001 1357:0.050000001 1882:0.050000001 2787:0.050000001 3674:0.050000001 7819:0.050000001 9190:0.050000001 18631:0.050000001 28286:0.050000001 #
2.1206991727538402336961098626489 7:0.024390243 29:0.073170729 35:0.024390243 36:0.024390243 46:0.048780486 57:0.048780486 63:0.024390243 87:0.024390243 88:0.024390243 144:0.024390243 193:0.073170729 195:0.073170729 285:0.024390243 289:0.024390243 300:0.024390243 469:0.024390243 509:0.048780486 519:0.024390243 722:0.024390243 822:0.024390243 872:0.024390243 896:0.024390243 914:0.024390243 1376:0.024390243 1399:0.024390243 1504:0.024390243 3488:0.024390243 3489:0.024390243 3490:0.024390243 3491:0.024390243 3492:0.024390243 3493:0.024390243 #
2.0404647379226901193760568276048 3:0.040816326 10:0.020408163 11:0.020408163 12:0.06122449 14:0.020408163 18:0.040816326 32:0.020408163 36:0.020408163 46:0.040816326 48:0.020408163 63:0.020408163 68:0.020408163 95:0.020408163 103:0.020408163 156:0.020408163 185:0.020408163 187:0.020408163 191:0.020408163 210:0.020408163 237:0.020408163 267:0.020408163 274:0.020408163 285:0.020408163 321:0.020408163 400:0.020408163 670:0.020408163 710:0.020408163 784:0.020408163 880:0.020408163 1316:0.020408163 1331:0.020408163 1559:0.020408163 1643:0.020408163 2928:0.020408163 3307:0.020408163 5555:0.020408163 5888:0.020408163 6949:0.020408163 7421:0.020408163 7681:0.020408163 8299:0.020408163 9090:0.020408163 37116:0.020408163 39909:0.020408163 #
-10.36040810231927800089124502847 1:0.025641026 2:0.1025641 7:0.025641026 9:0.025641026 12:0.1025641 14:0.025641026 18:0.025641026 46:0.051282052 63:0.025641026 72:0.025641026 74:0.025641026 87:0.025641026 95:0.025641026 187:0.025641026 267:0.025641026 321:0.025641026 383:0.025641026 463:0.025641026 524:0.025641026 863:0.025641026 1512:0.025641026 2859:0.025641026 3942:0.025641026 3969:0.025641026 8593:0.025641026 17118:0.025641026 21231:0.051282052 21232:0.025641026 21233:0.025641026 21234:0.025641026 21235:0.025641026 #
-10.36040810231927800089124502847 1:0.027027028 2:0.027027028 11:0.027027028 12:0.054054055 14:0.027027028 29:0.027027028 32:0.027027028 46:0.054054055 48:0.027027028 57:0.027027028 68:0.027027028 69:0.027027028 99:0.027027028 103:0.027027028 127:0.027027028 223:0.027027028 241:0.027027028 242:0.054054055 327:0.027027028 432:0.027027028 439:0.027027028 465:0.027027028 626:0.027027028 816:0.027027028 1098:0.027027028 1413:0.027027028 1424:0.027027028 1598:0.027027028 3225:0.027027028 3888:0.027027028 4009:0.027027028 4335:0.027027028 6922:0.027027028 14363:0.027027028 #
